,embedding0,embedding1,embedding2,embedding3,embedding4,embedding5,embedding6,embedding7,embedding8,embedding9,embedding10,embedding11,embedding12,embedding13,embedding14,embedding15
AAACCTGGTAGAAAGG_AD5_AD6,0.114144444,0.24546812,-1.1071026,-0.27594408,0.11537866,-0.06800591,0.15702048,0.54649705,0.20330295,-0.046754323,-0.06971331,-0.017489014,-0.7108316,-0.032396775,1.2744836,1.2609127
AAACCTGGTAGCGATG_AD5_AD6,-0.13405208,-0.2169636,0.23732863,-0.36870655,-0.67839634,0.27038237,0.07888278,0.0647696,-0.07549175,0.11813314,0.1160837,0.26514423,0.6870764,0.25883105,0.07015517,-0.039973747
AAACCTGTCAGTCAGT_AD5_AD6,-0.35731435,0.5817846,1.00336,-0.30589405,-0.47418863,0.13095802,0.38199574,-1.0936506,-0.15299027,0.4488261,0.39785922,-0.36108622,0.053125683,1.545339,0.85606855,-0.28604603
AAACCTGTCCAAACAC_AD5_AD6,0.44757658,0.15888438,-0.08610429,0.00818201,0.77149564,-0.10634691,-0.18323691,0.69327337,0.33128747,-0.17221129,-0.23721458,-0.1540737,-0.20023252,-0.44187433,0.2850428,0.024583334
AAACCTGTCCAGTATG_AD5_AD6,-0.37270588,0.3798442,-0.3391239,-0.9588055,0.2620069,0.025210256,0.10315988,0.18696152,-1.1034114,-0.27287015,0.62001425,0.18425249,0.08014068,-0.010197464,0.012881953,0.2648697
AAAGCAACATGGGAAC_AD5_AD6,-0.61088216,-0.21921708,-0.23383103,0.20474167,-0.2221306,0.12427586,0.07038269,0.13456951,0.30174503,-0.24257575,-0.43286777,-0.010396997,-0.39483112,-0.07113917,-0.1102948,-0.13197535
AAAGCAAGTCGAATCT_AD5_AD6,-0.11927711,-0.3480744,-0.4504215,-0.0076841465,-0.11625642,-0.06277984,0.2771203,-0.3979074,0.3723928,-0.5410305,0.28173745,0.17391317,-0.018452741,0.3118422,0.00042482198,0.65959054
AAAGCAAGTTTGTTGG_AD5_AD6,-0.1083273,-0.500272,0.25248712,-0.3924034,-0.24664149,0.63264394,0.08530092,-0.3324675,0.50547886,-0.2194459,-0.31568813,0.096289754,0.058842245,0.2283512,-0.5752542,0.00224158
AAAGTAGGTAATCACC_AD5_AD6,0.09463868,0.46776927,-0.4972643,-0.36210558,0.34621006,-0.37651303,0.001819593,0.8957258,-0.6641352,-0.041872434,0.20025004,-0.08738947,-0.27808782,-0.28511822,0.92690194,0.1411342
AAAGTAGGTTCCACGG_AD5_AD6,-0.23766474,0.06465576,0.09778892,0.73260725,-0.17718376,-0.03436684,0.049437553,-0.16528817,0.35800725,0.7831633,-0.18078442,-0.3024556,-0.060518276,0.24152765,0.45605254,-0.00021863797
AAATGCCCAAGACACG_AD5_AD6,0.16968158,-0.07450826,-0.6971967,-0.47753134,0.1049395,-0.018487718,0.37660855,-0.019222176,0.9003413,-0.12966254,-0.34602383,0.1586087,0.093417756,0.17480926,0.21844205,0.28733054
AAATGCCCAATAGCGG_AD5_AD6,-0.7333746,-0.0757935,-0.7933338,0.024197152,0.089004084,-0.28553,0.0858103,-0.48838797,-0.1400924,1.0068575,-0.11678437,-0.091631144,0.18943097,0.099778354,-0.5613926,0.14185527
AAATGCCCACATGGGA_AD5_AD6,0.182034,0.0422302,-0.55393934,0.71045834,-1.3650687,0.010232122,-0.35567296,-0.20044212,-0.776382,-0.57832634,1.035128,0.8732178,0.20841515,-0.35494003,0.24770154,1.0457807
AAATGCCGTCATCCCT_AD5_AD6,0.20326403,0.1785026,-0.56830937,-0.23824129,0.7870297,-0.401051,-0.067900516,0.5515288,0.08678947,-1.0646821,0.10425987,0.21010165,-0.12479251,-0.6793634,-0.26622194,-0.015700817
AACACGTAGCTGTCTA_AD5_AD6,0.007414405,-0.07845053,-0.29882887,-0.36679623,1.0098437,-0.42080158,0.19445375,0.06188167,0.16763985,-0.7063118,-0.27960914,-0.28487438,-0.52693325,-0.0752675,-0.5159552,-0.2774802
AACACGTTCCTCCTAG_AD5_AD6,0.21665908,-0.13160904,-0.5832747,0.6690894,-0.50458455,-0.24393606,-0.2662072,0.20747732,0.45715323,-1.0435389,-0.28212878,0.28613466,-0.8386908,-0.2844584,0.22136152,0.5401772
AACCATGCACATGGGA_AD5_AD6,0.08844956,-0.2808649,0.03497764,-0.09373105,0.196582,-0.2389671,0.19221728,0.094254404,0.5717208,-0.04409083,-0.362036,-0.21890427,-0.07421468,0.38235906,0.2072648,0.14902057
AACCATGGTTGTGGAG_AD5_AD6,-0.27623802,0.19421266,-0.70264715,-0.06956558,0.25432655,-0.2615468,-0.13713342,0.20259129,-0.5341077,0.7866384,0.07036864,-0.14974494,-0.002639041,-0.33218497,0.031554,0.25957257
AACCATGTCCGTACAA_AD5_AD6,-0.1513526,0.4088183,0.048505325,0.7010922,1.3490968,-0.8344242,0.2697273,-0.40455168,0.2753529,-0.12573239,0.15274234,-0.78326637,-0.2927647,0.3224452,0.2517836,-0.55866235
AACCATGTCTGATACG_AD5_AD6,-0.29496878,-0.054191247,0.022143548,0.38532108,-0.3063695,0.47015804,-0.45187268,-0.13083634,-1.0946369,0.31993407,0.3242731,0.27279988,0.17003582,-0.98846966,-1.1127752,-0.6792738
AACCGCGAGTACGTTC_AD5_AD6,-0.060827628,0.14201982,0.045032416,0.3391323,0.3747888,-0.123851776,-0.093080096,-0.98489547,-0.15240799,0.35370398,0.5808071,-0.13689351,0.110007286,0.09830146,-0.5414576,0.009713019
AACCGCGGTTGAGGTG_AD5_AD6,-0.24312623,-0.4117247,-0.5636804,0.5153786,-0.44188347,0.025555061,0.03224062,-0.095232815,0.76701134,-0.14705229,-0.5943904,0.0178568,-0.48696882,-0.061614465,0.035455983,0.25205046
AACCGCGTCCGTTGCT_AD5_AD6,-0.20658937,0.14180061,-0.3153616,0.41333246,0.1186343,0.18034153,-0.039482012,-0.637794,0.2461206,-0.3367937,0.21980447,0.14959592,-0.35344028,0.06556928,-0.14036098,0.22293644
AACGTTGGTAAGTTCC_AD5_AD6,0.17104395,0.25821522,1.2056018,0.69205236,1.0170317,0.08564988,0.322833,0.060515597,0.93284905,-0.67350274,-0.6504337,-0.757012,-0.42158416,0.40424585,0.31330097,-1.4037818
AACTCAGCACGAAGCA_AD5_AD6,0.13498057,-0.36847928,0.055334885,0.37781453,-1.2103287,0.16254488,-0.12809084,0.3090385,0.38907203,-0.6558055,-0.2241911,0.50637335,0.008882094,-0.31516206,-0.04117923,-0.118688606
AACTCAGGTGCTTCTC_AD5_AD6,-0.0118421195,-0.12174519,-0.5733419,0.51867646,-0.20914298,0.1055798,-0.025693255,0.15956365,0.21530783,0.085311174,-0.16756251,0.16567144,-0.31449845,-0.34911326,0.2882361,0.27913758
AACTCAGTCGCCATAA_AD5_AD6,-0.13894936,0.108903125,-0.30522186,0.37164062,-0.39023447,-0.12555128,-0.18964633,-0.16651355,-0.46173805,0.14321795,0.5763689,0.2897386,0.23854122,-0.06089811,0.10005962,0.46036527
AACTCCCCATAAGACA_AD5_AD6,0.070712544,-0.002611186,0.65762424,-0.30655026,0.07231713,0.63585436,-0.10270705,-0.018902788,-0.70218605,-0.65634036,0.6161169,0.3328489,0.47063267,-0.2933942,-0.5911812,-0.5142022
AACTCCCGTCTAACGT_AD5_AD6,-0.50057495,0.41972306,-0.7940386,-0.2427551,0.32421178,-0.09283754,0.23671812,-0.1386556,-0.7094039,-0.95047486,0.7345427,0.27226654,-0.1909885,0.035389297,0.18333456,0.32476407
AACTCTTAGAACAATC_AD5_AD6,0.5044654,-0.12352855,0.14725201,-0.25810742,-0.31838802,0.32837543,0.09226535,0.06715539,0.45702547,-0.28911453,-0.13271219,0.09874354,-0.012494569,0.09120524,0.5272797,0.11714533
AACTGGTGTCTAGTGT_AD5_AD6,0.14903684,0.5576536,-0.8218215,0.052714642,1.3410034,-0.48727027,-0.041356083,0.6293323,0.2190943,0.09948647,-0.3859661,-0.28159413,-0.42035353,-0.7111254,0.22727819,-0.13273646
AACTGGTGTTGGTTTG_AD5_AD6,0.29019043,-0.1190814,-0.23919202,-0.5868211,-0.076989986,0.044607155,0.045874055,-0.36680537,0.020954993,0.33140236,0.14302836,0.14141414,0.27858606,0.14730202,-0.21214516,0.45173347
AACTTTCGTCTAAAGA_AD5_AD6,-0.09962864,0.26953277,0.43892413,-0.49915734,0.72036505,-0.029440442,0.035551343,0.096354805,-0.47920495,1.0824413,0.12430901,-0.40865704,0.529148,0.3236233,0.13060617,-0.02640264
AACTTTCTCCAGTAGT_AD5_AD6,-0.16939706,-0.24493997,-0.4166998,0.27374998,-1.0400087,0.54744464,-0.24892871,0.47736228,-0.46967226,0.31677872,-0.25163892,0.25133508,-0.3562378,-0.50735086,0.35825264,0.15885222
AACTTTCTCGCCGTGA_AD5_AD6,0.4432536,-0.041732565,-0.086459376,-0.45133632,0.60534936,-0.27267653,0.018361453,0.25830394,-0.1931827,-0.4510005,0.0725628,-0.013045207,-0.110902414,-0.21108942,-0.3077484,0.15893188
AAGACCTAGATCCTGT_AD5_AD6,-0.025014779,0.08140006,0.39171532,-0.64246136,-0.43927228,0.35759583,0.019667987,0.09003365,-0.41343895,0.14860667,0.25052717,0.09169507,0.22223693,0.34205014,0.3519568,0.35874116
AAGACCTGTATAGTAG_AD5_AD6,-0.07334206,-0.14090453,-0.52945006,-0.21128562,0.56381863,-0.6110489,0.16675122,-0.26712632,0.679643,0.14784917,-0.20891352,-0.1807996,0.055926666,0.40576908,-0.108349115,0.60277754
AAGACCTGTTATTCTC_AD5_AD6,-0.47560108,0.15398242,-0.2917634,0.48919111,-0.19962057,0.43012983,0.12264927,0.0066047874,-0.26871413,-0.35272467,-0.06637494,0.09125536,-0.38832384,-0.18425485,0.117978156,-0.11611095
AAGACCTTCAAACCAC_AD5_AD6,-0.38512242,-0.0061925645,0.6294016,0.30062965,-0.46353927,-0.08222391,-0.07029217,-0.6740629,-0.43483734,0.15722324,0.66881984,0.16604099,0.6746301,0.5337957,-0.46805102,-0.116961025
AAGACCTTCAGGATCT_AD5_AD6,0.09734971,0.3766132,0.36403129,-0.11912902,-0.4396799,0.20488317,-0.13232696,0.66794235,-0.7050869,1.3933378,-0.41944757,-0.31932595,-0.2379052,-0.075415306,0.9348184,-0.48272827
AAGCCGCCAAGGTGTG_AD5_AD6,-0.7303366,0.34503824,-0.46487895,-0.98535776,-0.28500724,0.26301843,0.43961114,-0.45318046,-0.98822767,-0.15522218,0.7248185,0.20949289,-0.07780941,0.76602244,0.41349187,0.6149898
AAGCCGCCACAAGACG_AD5_AD6,0.22035937,-0.13751402,0.40190083,-0.51256275,0.098677225,-0.10774931,-0.30941615,0.6290241,-0.24409351,0.9388811,-0.0035278017,-0.1063209,0.59234065,-0.13109276,-0.00268864,0.36021972
AAGCCGCGTCAAACTC_AD5_AD6,0.024115605,0.13248825,-0.08413089,0.29705113,0.26403257,-0.37947598,0.029257124,-0.5280927,0.52764624,-0.92352396,0.33824742,0.0011994868,-0.24759977,0.34381387,0.088277884,0.23376547
AAGCCGCTCACCAGGC_AD5_AD6,0.045301694,-0.6482622,-0.4182523,-0.058094647,0.08240931,0.07557258,-0.08889024,0.4686205,0.7164924,-0.09302619,-0.94461715,-0.03625205,-0.41093597,-0.553392,-0.5738651,0.010035002
AAGGAGCCAAATCCGT_AD5_AD6,0.29850078,0.19130558,-0.043645673,-0.2871152,1.0216383,-0.42306116,-0.07302181,0.49435377,0.034098264,0.28568748,-0.26970324,-0.29314214,-0.07839204,-0.39091766,-0.18819,-0.12421905
AAGGAGCCAAGTTAAG_AD5_AD6,-0.2578566,-0.43510348,-0.085777834,-0.58913857,-0.4826818,0.3309265,0.2779112,0.483549,0.15552863,-0.23455824,-0.48020202,0.11099435,-0.14366944,0.08160764,0.078276336,-0.03160303
AAGGAGCCACCACCAG_AD5_AD6,0.12093252,0.1016278,0.62221134,-0.29450345,-0.29704356,-0.19491436,-0.28835154,0.4760532,-0.64551365,-0.14584936,0.23011392,0.1514893,0.29992634,-0.041058443,-0.03190556,-0.15465362
AAGGAGCCACGGATAG_AD5_AD6,0.3516068,-0.42515108,-0.560945,0.81708854,-0.35754523,-0.17223553,-0.37615097,0.33054483,0.6518264,0.24194379,-0.9003406,-0.0869523,-0.86874205,-0.8186355,-0.1934098,0.34357643
AAGGAGCCAGGTGCCT_AD5_AD6,0.37320602,-0.18469742,-0.30602288,0.34323433,-0.6832704,0.4945459,-0.49078262,0.14535876,-0.32660267,0.7831444,0.078531064,0.5057891,0.41895795,-1.0155177,-0.52102435,0.044407737
AAGGCAGAGACTTGAA_AD5_AD6,0.24927582,-0.36010256,0.82610846,-0.55201167,-0.008948293,0.9194752,-0.15359554,0.52600753,-0.26663786,-0.98635125,-0.021485955,0.4496857,0.41228712,-0.6194511,-1.027392,-0.6251735
AAGGCAGAGTGACATA_AD5_AD6,0.16639872,0.19663581,-0.45258668,0.2117593,0.9312907,0.33895838,0.027175503,0.51037675,0.6417408,0.18003978,-0.41435543,-0.2853777,-0.4169865,-0.36448795,0.5954859,0.30405253
AAGGCAGCAGCCTTTC_AD5_AD6,-0.04877754,-0.009032961,0.5124084,-0.12372206,0.677555,0.5637272,-0.0013801549,0.4296611,-0.31323576,-0.010637191,-0.14748041,-0.13512507,0.15068161,-0.44486043,-0.47817668,-0.68298334
AAGGTTCAGAATCTCC_AD5_AD6,-0.016991183,0.42878655,0.21109585,-0.12936267,1.0120819,0.4434331,-0.22823903,-0.15300177,-0.53551114,0.75621426,0.12169342,-0.12058682,0.24527271,-0.63645005,-0.8269309,-0.56704813
AAGGTTCCAAGTCTAC_AD5_AD6,0.6240215,0.10631072,0.41846535,-0.47932255,0.8901766,-0.3842867,-0.0017002557,0.29029027,0.19465764,0.58596146,-0.028154518,-0.4167391,0.33341157,0.23594305,0.30328542,0.07912535
AAGGTTCCACAGACAG_AD5_AD6,0.7479537,-0.11413679,0.54436,0.25470704,0.17830148,0.24087912,-0.4572178,0.447991,-0.18462688,0.95748544,-0.036502033,-0.0152926585,0.7268297,-0.95624447,-0.47789994,-0.58029187
AAGGTTCCACGTAAGG_AD5_AD6,0.17484736,-0.4470342,-0.44387645,-0.29182065,-0.49465495,-0.022515837,0.014908515,-0.4838681,0.41275194,-0.91081625,-0.07359121,0.5171247,-0.18837294,0.21549639,-0.56202227,0.51775694
AAGGTTCCAGGATCGA_AD5_AD6,-0.064368084,0.38103923,-0.15746485,0.12620929,0.92455214,-0.33000717,-0.041190322,-0.53510886,-0.07480831,0.718614,0.09448226,-0.34084615,-0.0056435973,0.0746401,-0.3564645,-0.20645891
AAGGTTCGTGCCTGTG_AD5_AD6,-0.761954,-0.2330951,-0.7767793,-0.2021919,0.1091135,-0.20423356,0.34476516,-0.37084445,0.40120682,-0.35234722,-0.18147463,-0.063585736,-0.24768385,0.35617182,-0.19880794,0.4019661
AAGTCTGAGTCCGGTC_AD5_AD6,0.44729254,-0.07552537,-0.35898513,-0.16415486,0.1032459,0.34115812,-0.0016211539,-0.42801625,0.47148293,-0.75534743,0.29998884,0.44598052,0.025314927,-0.14748994,-0.27127883,0.6122523
AAGTCTGTCCAATGGT_AD5_AD6,-0.7110083,-0.1792082,0.42654157,-0.74843735,-0.6387465,0.2071811,0.4479261,-1.5548,0.23229367,-0.0028671701,0.26388255,-0.020700341,0.24535719,1.4902444,-0.39693108,0.05402827
AATCCAGAGGTCATCT_AD5_AD6,-0.1900037,0.36193055,0.34955427,0.50418496,0.36824498,-0.3209889,0.08041579,0.18743901,-0.33941868,-0.18970457,0.107476845,-0.31070206,-0.095938504,0.008416202,0.27739152,-0.7139793
AATCCAGTCACAATGC_AD5_AD6,-0.07411877,0.16072074,-0.017014958,-0.09239918,-0.37194067,0.24023306,-0.20161183,0.51352906,-0.7214077,-0.5309887,-0.08909838,0.13888164,-0.5338585,-0.33203635,0.24046096,-0.27318332
AATCGGTAGGCCCTCA_AD5_AD6,0.19893867,-0.31439978,-0.4864496,-0.4296003,-0.09329516,0.10149952,0.15236591,0.25588757,0.70383674,0.92030394,-0.65153843,-0.23758832,-0.17348114,0.057894394,0.5166956,0.72944796
AATCGGTAGGGCTTCC_AD5_AD6,0.2410662,0.003937526,-0.6954352,0.103799924,0.6065598,-0.005956907,-0.19432443,0.5767782,0.1610842,-0.46346602,-0.01658083,0.21044879,-0.32204476,-0.92844516,-0.21285108,0.493442
ACACCAACACACGCTG_AD5_AD6,-0.30803594,-0.11924474,-0.6531434,0.15022875,-0.43471688,0.23905075,0.057231605,-0.59901416,0.42551425,0.075073846,0.059196018,0.10768478,-0.357585,0.13305153,0.095072344,0.712407
ACACCAACATGTAAGA_AD5_AD6,-0.209778,0.19996932,-0.13161668,-0.40611014,-0.44406688,0.24408408,0.010323858,0.5389723,-0.69385904,0.8064458,0.12328958,0.017841207,0.043971334,-0.0036171714,0.7689802,0.27705604
ACACCAATCAGGCGAA_AD5_AD6,-0.2902773,-0.4266307,-0.038147558,0.07873438,-0.7558195,0.18676242,0.06365056,-0.8005438,-0.11975849,0.06520991,0.17282093,0.15581441,0.21889578,0.19949299,-0.53518856,0.044610903
ACACCCTAGCTACCTA_AD5_AD6,-0.363879,-0.19974612,-0.16594353,0.42640427,0.30202886,-0.17375986,-0.054929577,0.029263109,-0.42702726,-0.16478488,0.13703784,0.14347129,0.31009242,-0.5250516,-0.977288,-0.5617637
ACACCCTCAACACGCC_AD5_AD6,-0.449626,-0.07372207,-0.58998567,0.33281997,0.4564281,-0.18762858,0.08269646,-0.07706467,0.014998412,-0.3906765,-0.026581062,0.06058557,-0.0960989,-0.27174297,-0.5573736,0.072874844
ACACCGGGTTCGTTGA_AD5_AD6,0.27864853,0.40733948,0.8717646,-0.21911426,-0.19760194,-0.20418754,0.1192755,-0.55738527,-0.064391345,0.3666101,0.37468272,-0.22393687,0.20070699,1.0740322,0.7242846,0.14417529
ACACTGACACCTATCC_AD5_AD6,-0.46714833,0.18277024,-0.22176082,-0.43371585,-0.34781706,0.5312434,0.005722116,0.34411156,-0.753315,0.002618489,0.12845182,0.18835257,-0.025461394,-0.39646825,0.10074595,-0.2570459
ACACTGAGTAGAGTGC_AD5_AD6,0.121891506,0.18761756,0.103471495,0.6782594,-0.87356263,0.320051,-0.3948007,0.12601049,-0.5176593,0.79551536,0.16895694,0.25701421,0.31187505,-0.42987153,0.38500315,0.09870332
ACAGCCGTCGTGACAT_AD5_AD6,0.6606406,0.047947634,-0.29314876,0.34155068,-0.66173786,0.31934476,-0.47663116,0.38005528,0.11658073,0.38152787,-0.16448018,0.3186713,-0.088520445,-0.6633259,0.48334214,0.27707142
ACAGCTAAGATCGGGT_AD5_AD6,0.38267162,0.07169271,-0.43552974,-0.032592278,-0.02465859,-0.76337177,-0.051856685,0.5051868,0.23900081,-0.33438218,-0.22299117,-0.11312592,-0.5965371,0.012101157,0.75341797,0.43011552
ACAGCTACACATTAGC_AD5_AD6,-0.024014214,0.07782131,0.18380834,0.520165,0.4237703,0.43382624,-0.2117098,-0.014712743,-0.41543168,-0.10945334,0.32180956,0.021965722,0.17042124,-0.5922815,-0.4662312,-0.43635508
ACATACGGTCAGTGGA_AD5_AD6,-0.57524663,0.13217396,0.23730488,0.1523822,0.04735041,0.46707445,-0.19277813,0.67671883,-1.0762304,0.10408467,0.12446505,0.013471138,-0.035378,-0.65296364,-0.1911681,-0.53014934
ACATACGTCCGCTGTT_AD5_AD6,-0.54631877,0.34828517,0.29586816,-0.08395083,-0.8229377,0.032987926,0.06819047,-0.44502196,-1.1961048,-0.56014526,0.9020127,0.40871093,0.24748604,0.32874647,-0.05224365,-0.3314892
ACATACGTCTGGAGCC_AD5_AD6,-0.028322276,0.51827484,0.034049142,0.28076318,1.6801969,-0.47129858,0.46691954,-0.78085226,0.4354807,-0.7014341,0.14370431,-0.6597207,-0.31430948,0.5958053,0.01675614,-0.6061299
ACATCAGGTATAATGG_AD5_AD6,0.1931457,0.54456604,0.9105509,0.21969941,0.13291086,0.08459891,-0.17478725,0.18211997,-0.58686936,-0.908506,0.36111018,0.0077686002,-0.1454325,-0.19717164,0.10685265,-0.9160892
ACATGGTGTCGAGTTT_AD5_AD6,-0.56930953,-0.2140119,-0.034053683,-0.7339283,-0.4318638,0.35307065,0.057967316,0.3655656,-0.18120202,0.09247671,-0.3437262,0.114268206,0.14798833,0.0594182,-0.15669045,-0.11749896
ACATGGTGTTCCACGG_AD5_AD6,0.25151873,-0.78472304,-0.7339025,-0.8334051,0.018999688,-0.5108946,0.22783618,-0.69918835,0.95512277,-0.9604238,0.16664542,0.6900328,0.7807796,0.4564515,-1.2295269,0.87914604
ACATGGTTCAGCTTAG_AD5_AD6,-0.4350084,-0.112187475,-0.15460901,0.10074591,-0.12562872,-0.005223489,0.17647633,-0.98923063,-0.42410952,0.039688703,0.5866403,0.2950084,0.6472256,0.1393978,-1.0561118,-0.27891073
ACCAGTAGTGTCGCTG_AD5_AD6,-0.024048174,0.015788937,-0.4937951,-0.3294542,0.64506984,-0.059520204,-0.18307482,0.45471033,-0.61157215,-0.20561182,-0.0034483676,0.032992482,-0.24990027,-0.7721889,-0.5911292,-0.11257179
ACCCACTGTCCCTACT_AD5_AD6,0.06459821,0.068412825,1.0842376,-0.108843505,0.009288944,0.09804737,-0.21520637,0.6325684,-0.51184255,0.6807107,-0.11891306,-0.37367934,0.33019727,-0.12962048,0.11312008,-0.71857285
ACCCACTGTTCAGGCC_AD5_AD6,-0.20097233,0.26210886,0.5972584,-0.04268149,0.30651042,0.20869257,0.14791107,0.19643594,-0.18703428,0.11630183,-0.0018811093,-0.3402963,0.013249229,0.10271491,0.36184105,-0.7120415
ACCCACTTCTAACGGT_AD5_AD6,-0.15214862,0.12732963,-0.92798513,-0.032225445,0.03043822,-0.27785885,0.3933605,-0.5570342,0.7313561,-0.34017244,-0.002435909,0.06906716,-0.2911633,0.44641462,0.3954513,0.5422084
ACCGTAACATGGTTGT_AD5_AD6,0.48503864,-0.095850006,-0.37085783,0.116853565,-0.49890608,0.22210725,-0.22633046,-0.12377361,-0.05174598,0.95801836,0.021576473,0.23007625,0.2958847,-0.37028334,-0.00089316064,0.35755628
ACCGTAAGTTCGTCTC_AD5_AD6,0.3932004,-0.20948303,0.08041166,-0.23450267,0.39647606,-0.072181195,-0.14296085,-0.16148776,0.6255072,0.41992262,-0.15794633,-0.17840666,0.20987628,0.011290393,-0.27899843,0.41811153
ACCTTTAAGAAACCAT_AD5_AD6,0.31335565,-0.087141216,-1.0617281,-0.15265547,0.11756515,-0.22010054,-0.33520535,1.0983436,-0.567755,-0.28152665,-0.23933841,0.42291006,-0.29597998,-1.4045169,-0.3956426,0.12230211
ACCTTTAAGAGTGACC_AD5_AD6,0.9946501,-0.06499232,0.07419621,-0.336249,0.71182877,-0.38371065,-0.11901766,0.0812854,0.41466653,1.0336926,-0.022994827,-0.060192693,0.7774928,-0.060801066,-0.21945834,0.54786587
ACCTTTAAGATCCCAT_AD5_AD6,0.45169523,-0.04642094,0.19811857,0.08922153,-0.24910979,0.43355745,-0.33192638,0.39370245,-0.54436225,0.37802273,0.30561078,0.39347032,0.6448405,-0.91284895,-0.4289373,-0.21381845
ACCTTTAAGCTCCTTC_AD5_AD6,-0.853195,-0.58304954,-0.58869356,-0.62624437,-1.2880992,0.589149,0.28392193,0.097599946,0.47776282,-0.9865519,-0.81543756,0.32202426,-0.71988857,0.23978564,-0.06976727,0.16136484
ACCTTTAAGGAGCGTT_AD5_AD6,-0.5804519,0.30149707,-1.116285,-0.23035036,-0.00058270263,0.63626,-0.33844823,0.91827375,-1.124216,-0.18227114,0.43802756,0.45210552,-0.20577408,-1.1068362,0.30657932,0.59433854
ACCTTTAGTCACAAGG_AD5_AD6,0.3374626,-0.13957624,-0.52297586,0.9702137,0.5868252,-0.4650824,-0.16070464,-0.02961335,0.37563178,0.1671798,-0.18154742,-0.118773386,-0.06255559,-0.80765325,-0.6270799,-0.35304776
ACGAGCCAGGGTCTCC_AD5_AD6,0.12648797,-0.11184819,-0.34943086,-0.5570258,0.41265848,-0.08735502,0.22465555,0.13514483,0.5296462,-0.41735488,-0.259661,-0.047000498,-0.22008975,-0.09224869,-0.08764126,0.09045272
ACGAGGAGTGAAATCA_AD5_AD6,-0.14417489,0.64547724,0.03477963,0.72051847,-0.15052538,0.085088395,-0.008839061,-0.5837631,-0.0935474,-1.0974214,0.5401301,0.13792412,-0.7057609,0.19040063,0.46658796,-0.07281821
ACGATACCAAACTGCT_AD5_AD6,-0.16056229,0.5816318,-1.1138202,-0.31567365,0.2233829,0.03809458,-0.18522632,0.5993362,-0.38443682,0.13673341,0.18788399,0.2005525,-0.3578441,-0.49330983,0.75949264,0.7534423
ACGATACCAGATGAGC_AD5_AD6,0.041036192,0.096743904,-0.44366103,-0.33351585,0.3565606,-0.002284413,-0.056759425,0.1644176,-0.047149997,0.27486363,0.11488593,0.05112493,-0.04417425,-0.12494801,0.08087456,0.7298645
ACGATACGTCGCGGTT_AD5_AD6,0.32863772,0.010079563,0.053478714,-0.59879506,0.21394427,0.19493231,0.1205908,0.069329835,-0.38113812,0.9282883,0.3631572,-0.0056807194,0.7030308,0.07283708,0.13220091,0.39270103
ACGATGTAGTCGTACT_AD5_AD6,0.16261056,-0.15131326,-0.30966276,0.025015559,0.2458811,0.34911492,-0.0077462024,0.5538213,0.66815066,0.4521938,-0.76704216,-0.22290836,-0.33010647,-0.29051012,0.41234428,0.17873165
ACGATGTCAAGAAGAG_AD5_AD6,0.53195935,-0.08339098,-0.29117727,-0.6718247,1.2037461,0.048655633,-0.15065381,0.15017717,-0.093474716,0.017386999,0.29024392,0.12996003,0.37363654,-0.4549549,-0.6748581,0.5033075
ACGCCAGGTACATCCA_AD5_AD6,0.06280895,-0.28906706,0.2744464,-0.21433571,0.19060364,0.40736717,0.16454135,-0.066494726,0.727351,-1.246972,-0.056122366,0.2502276,0.093674235,0.07020272,-0.39996377,-0.14848213
ACGCCAGGTCGAACAG_AD5_AD6,0.0124989655,0.020508306,0.6239277,0.5870205,0.027412258,-0.20840682,-0.4055979,-0.43342566,-0.18891829,0.8534256,0.26601684,-0.12112968,0.5734645,-0.0069920244,-0.5904119,-0.30339223
ACGCCAGTCCGCGTTT_AD5_AD6,0.046042427,-0.0024417376,0.9702243,0.65667546,-0.19328156,-0.22588739,-0.04023926,-0.5036239,-0.39621517,0.39562806,0.13496387,-0.20436414,0.4614751,0.2474947,-0.54208976,-0.9270422
ACGCCAGTCTTGCATT_AD5_AD6,0.10716992,-0.26092595,0.0718125,-0.6718555,-0.2710921,0.2175538,-0.1605128,0.2372899,0.24699074,0.32279816,-0.32841754,0.25090966,0.3065132,-0.17608999,-0.45384824,0.20262223
ACGCCGACATCGGAAG_AD5_AD6,-0.63060457,0.062347244,-0.07821544,0.64255095,0.08707171,-0.32161006,0.24286522,-0.10928897,-0.15381981,-0.6886583,-0.18274848,-0.16443354,-0.29029793,0.002823358,-0.3081634,-0.9544552
ACGGAGAAGAATTGTG_AD5_AD6,-0.07169564,-0.00427635,0.43635425,0.87069863,-0.99060196,0.10761955,-0.07246235,-0.79360497,-0.07342387,0.51221114,0.09551527,-0.11114239,-0.16810499,0.26817143,0.18280897,-0.246478
ACGGAGATCTAACTGG_AD5_AD6,0.6345897,0.081544735,0.3254098,-0.48986232,0.6363167,-0.24602684,-0.08571717,0.2037192,0.21857667,0.39788878,-0.112542376,-0.10743896,0.39727992,-0.122618236,-0.27038932,-0.25269634
ACGGCCACACTGAAGG_AD5_AD6,-0.5005851,0.08892982,-0.31197965,0.5753154,-0.34074423,0.37070101,0.05041514,-0.24022137,0.06113141,-0.60913044,0.07229047,0.21794331,-0.445122,-0.0108376285,0.15520923,0.015645575
ACGGCCAGTCCAACTA_AD5_AD6,-0.5543962,0.13478088,-0.1227841,0.13567747,-0.018731408,0.11061342,0.26061,-0.58662987,0.3010444,-0.096845776,-0.146629,-0.19325334,-0.3302176,0.48961952,0.11634189,-0.25051275
ACGGCCAGTCTCGTTC_AD5_AD6,0.2931585,0.022286648,0.28231612,0.31528702,-0.17229877,-0.21213055,-0.27155906,0.16319546,-0.37237665,-0.39425305,0.353043,0.12603635,-0.08034847,-0.17540285,0.06376382,0.08898872
ACGGGCTTCATTGCGA_AD5_AD6,-0.29112077,0.4009609,-0.37740132,0.5882637,-0.28265262,0.46622974,-0.031402245,-0.049824156,-0.20153403,0.4896826,0.27257723,-0.0048546824,-0.44355994,0.007958699,0.98573065,0.5999476
ACGGGTCGTTCTGAAC_AD5_AD6,-0.32562795,0.32701933,0.73402154,0.15984365,0.5177443,-0.4173931,0.22712286,0.0941576,-0.40576592,0.013626035,0.07456149,-0.5574625,-0.03434315,0.59423214,0.35513365,-0.76740444
ACGGGTCTCGCTGATA_AD5_AD6,0.5180616,-0.014119691,0.36658958,-0.48071307,-0.1993566,0.28857663,-0.17450833,0.5897985,0.15330221,-0.38558328,-0.13582481,0.28817323,0.15276681,-0.35491997,0.09391686,-0.0712066
ACGTCAACACGGCGTT_AD5_AD6,0.14650066,-0.090748265,1.4137416,-0.41636288,-1.4235163,0.29865927,-0.015612028,-0.37516356,0.20710295,-0.6315107,0.19578388,0.41410396,0.5693939,0.89441276,0.105890885,-0.30886644
ACGTCAACATCCCATC_AD5_AD6,0.11674083,-0.29365999,0.5082173,-0.18917781,-0.63570964,0.16693568,-0.32090428,0.56152487,0.14468688,0.42869738,-0.2549993,0.16388609,0.3579461,-0.025325628,0.080002315,0.32389504
ACGTCAAGTCAGAGGT_AD5_AD6,0.22960688,0.13652283,-0.2823211,0.41476765,-0.5793137,0.8160216,-0.1755109,0.87608796,-0.6140851,0.67746687,-0.26551685,0.2778295,-0.091865845,-1.1493369,0.42133206,-0.33091953
ACGTCAAGTTGGACCC_AD5_AD6,-0.4740267,0.37578848,-0.59911895,-0.44050562,-0.18087676,0.13941726,0.3469,-0.102849476,-0.30070207,0.24173254,-0.020528492,-0.14729984,-0.3499849,0.26302502,0.70038486,0.041356537
ACTATCTAGTTGCAGG_AD5_AD6,-0.5103956,0.44052657,0.025588134,-0.11659788,-0.27652085,0.17267783,0.034221087,-0.057737056,-0.5933851,0.73409986,0.15272412,-0.075543925,0.067221776,0.0964223,0.26841474,-0.28142455
ACTGAACAGATATACG_AD5_AD6,-0.3216396,-0.153797,-0.9326825,0.22333054,-0.5521832,0.09525781,0.06335915,0.017384233,0.3250992,-0.15374807,-0.33562544,0.09473974,-0.8605903,-0.11814783,0.46208796,0.72208434
ACTGAACCATGAGCGA_AD5_AD6,-0.2013558,0.09556859,0.000892626,-0.2860567,0.84724015,-0.5825658,0.29154018,-0.4116519,0.09845411,-0.030657586,0.14627863,-0.39285737,0.14862669,0.63808507,-0.11382491,-0.102102466
ACTGAACGTATATCCG_AD5_AD6,-0.10976091,-0.1544257,-0.05042603,0.34232926,-0.14428797,-0.043119777,-0.11962983,-0.27814475,0.4754851,-0.3432102,-0.00266016,0.18719327,-0.0063495906,-0.015692724,-0.37079206,0.040148463
ACTGAGTAGCGATCCC_AD5_AD6,0.15301979,0.38661572,0.16704497,0.43575075,0.3162214,-0.28823864,0.08985014,0.39913315,-0.12341172,-0.41707727,-0.09895688,-0.31420425,-0.53845453,0.074584074,0.83486414,-0.34091476
ACTGAGTGTGGTTTCA_AD5_AD6,-0.08598185,0.039078154,0.05505751,0.31551012,-0.38893154,0.33936572,-0.124755435,0.28362504,-0.2672622,-0.56872535,0.103664905,0.18275823,-0.19304985,-0.45386478,0.16280438,-0.4614174
ACTGCTCCACCACCAG_AD5_AD6,0.24785648,-0.09938153,0.8819783,-0.652223,-0.45402148,0.41817766,-0.44413736,0.72131455,-0.90781265,-0.5906017,0.5313751,0.49473792,0.57408845,-0.4743906,-0.40090635,-0.1129461
ACTGTCCCAAGTCATC_AD5_AD6,-0.08506879,0.022536425,-0.09250816,0.56615293,-0.22726628,0.57671154,-0.25222802,0.5195801,-0.16025725,-0.316873,-0.0303044,0.24620214,-0.06855989,-0.66430163,0.1741042,-0.05030889
ACTGTCCCACATGGGA_AD5_AD6,-0.44884822,-0.18972492,0.42683837,-0.06441425,-0.8971268,0.57928824,-0.17761233,0.9288661,-0.5526871,-0.3272156,-0.39809525,0.08492521,-0.33368215,-0.29864556,0.35704628,-0.35067213
ACTGTCCCACGACGAA_AD5_AD6,0.29851598,0.24783602,-0.02614996,0.6946624,-0.51246417,-0.19923565,-0.1605863,-0.49278808,-0.06092418,-0.16303669,0.44553292,0.24354848,-0.0631685,0.040053982,0.25676984,0.11992709
ACTGTCCCATGTTGAC_AD5_AD6,-0.06675127,-0.034456223,-0.2551144,0.19709663,0.0006689364,-0.20513159,0.016800137,-0.26418808,0.40634182,0.36875805,-0.012628161,0.10005849,0.57363456,-0.13087413,-0.33895952,-0.17475075
ACTGTCCGTCGCATAT_AD5_AD6,-0.3634567,-0.31899634,0.46018803,-0.075429015,-1.1406897,0.6143478,-0.2335024,0.13472447,-0.50654435,0.31395215,0.13016815,0.34080794,0.4547517,-0.065489024,-0.19811745,0.06046709
ACTGTCCGTCGCTTCT_AD5_AD6,0.12288228,-0.043793146,0.51797134,1.076586,-0.89986575,0.5044956,-0.49171624,-0.077646144,-0.008849143,-0.04561384,-0.19060774,0.2712747,-0.016854998,-0.5407261,-0.32126555,-0.6290092
ACTTACTAGTCGATAA_AD5_AD6,0.04727343,-0.2608341,0.3280029,-0.37819967,0.115487084,-0.6696255,-0.16667539,0.8872585,-0.56407285,-0.13701482,-0.0016110892,-0.041474625,0.25812712,-0.02626574,-0.16142817,0.09362927
AGAATAGAGGCAAAGA_AD5_AD6,-0.28671387,-0.124035195,-0.52149516,0.56516296,-0.4388084,0.12038595,0.24231353,-0.37709185,0.4803384,0.14892343,-0.26403168,-0.14310098,-0.46478835,0.16347964,0.41707855,0.29278076
AGAGCGAAGACAGAGA_AD5_AD6,0.68249,0.1793114,-0.14764382,0.23894793,0.8746115,-0.4266907,0.083344966,0.092865445,0.4399702,-0.07063486,-0.10996125,-0.21066496,-0.09709218,-0.11708668,0.15407328,-0.016468389
AGAGCGAAGCTCCTTC_AD5_AD6,0.04194365,-0.029658692,-0.5831216,0.20252346,-0.38414246,0.1696073,0.018383743,0.12488028,0.2707173,-0.44669157,-0.19989938,0.18166305,-0.5764725,-0.20221308,0.4188845,0.34349337
AGAGCGACAACCGCCA_AD5_AD6,0.23124358,0.010824749,-0.15590045,0.7321886,-0.14543748,0.19721243,-0.19143054,-0.22497083,-0.38185546,0.24309158,0.3850833,0.2027296,0.13247906,-0.5884164,-0.253255,0.052510086
AGAGCTTCACATGGGA_AD5_AD6,0.3203543,-0.14387171,0.34367388,-0.7494536,-0.29436108,-0.048912454,-0.20496596,0.83683604,0.04848321,0.64048284,-0.43321827,-0.07508155,0.108600214,0.13292946,0.5443646,0.44717133
AGAGCTTCATTCCTCG_AD5_AD6,0.28375852,0.1590441,0.5522789,0.36467415,-0.17657666,0.06975828,-0.20433344,0.09287863,-0.19737233,-1.0706817,0.47766253,0.31425726,0.04678023,-0.20698439,0.010704398,-0.27510497
AGAGCTTGTCACACGC_AD5_AD6,-0.16185915,-0.04835165,0.48191643,0.51655287,-1.1964875,0.4555555,-0.19696088,-0.085001454,-0.22913598,0.44685596,0.23572521,0.20438987,0.3181616,0.18918498,0.53906775,0.22960304
AGAGCTTTCTGTACGA_AD5_AD6,-0.3930848,0.28466442,-0.063432194,0.20519464,-0.17074405,-0.03311413,-0.030306628,-0.06891713,-0.032541405,0.5985418,-0.06630348,-0.10985091,-0.005830559,0.15058137,0.32766208,-0.041453093
AGAGTGGGTGACTACT_AD5_AD6,0.08015664,-0.6053173,-0.027367258,-0.8879633,0.216729,-0.2552529,0.1967778,-0.062524706,0.641459,-0.10143051,-0.19739716,0.07228695,0.44146538,0.51099795,-0.54543215,0.5795824
AGATCTGCACGCTTTC_AD5_AD6,0.036903873,-0.01592393,-0.5516313,-0.1952439,-0.32690334,-0.016377544,0.17088124,-0.4965435,0.20929766,-0.22818549,0.07622059,0.07462383,-0.37571263,0.4514699,0.3804222,0.755654
AGATTGCAGTGTCCCG_AD5_AD6,-0.09281219,0.026270626,0.08386118,0.15828386,-0.8782859,0.49855277,0.07216967,-0.10529338,-0.37796512,0.5137566,-0.002462123,0.14111558,0.046275277,0.0094431685,0.41681927,-0.2566664
AGATTGCTCGTCTGAA_AD5_AD6,0.13978125,0.44995713,-0.50723696,-0.47656178,-0.45389214,-0.2037162,-0.09153738,0.43142027,-0.8636143,-0.6726817,0.74186534,0.6078223,0.06564436,-0.2632437,0.51334465,0.4960627
AGCAGCCCACAACGTT_AD5_AD6,-0.21071489,0.26473945,-0.08145837,-0.24455868,-0.4486384,-0.19191751,-0.028650358,0.8164387,-0.446397,-0.016355015,-0.051027983,0.08694626,0.06709724,-0.14497565,0.6688082,-0.27062747
AGCAGCCCATTAGGCT_AD5_AD6,-0.14048845,-0.12737092,0.44081983,0.7261574,-1.0034677,0.4289778,-0.0704813,-0.2444923,0.37040392,-1.005528,-0.007766568,0.32745823,-0.39408168,0.1017917,0.09970894,-0.061447065
AGCATACTCAGTTTGG_AD5_AD6,0.4096261,0.46440843,-0.15090436,-0.69610345,0.49354076,-0.034985345,0.034953695,0.35604167,0.17619729,0.11017566,-0.011211958,-0.102247804,-0.023454133,-0.019206015,0.6760888,0.08906395
AGCCTAAGTGACCAAG_AD5_AD6,-0.4237959,0.15564531,-0.028432943,0.77697694,-0.7082711,0.24674085,-0.047133937,-0.64915276,-0.44847256,-0.3809888,0.36540797,0.23842736,-0.19764628,-0.12482992,-0.24763757,-0.30291304
AGCGGTCAGTGCTGCC_AD5_AD6,0.029619362,-0.115719505,0.5311886,0.43871924,0.2597692,0.2851928,-0.0667703,0.009083128,0.0034529092,0.8746869,-0.13044374,-0.2721432,0.49164456,-0.34140632,-0.35239857,-0.68798906
AGCGGTCGTAGCGTAG_AD5_AD6,0.1036207,-0.12732844,-0.4485431,-0.607634,0.3265635,-0.3633716,0.18889633,0.034216337,0.29536954,-0.72918385,0.008650526,0.103772864,-0.1751843,0.17083672,-0.08575949,0.44321874
AGCGGTCTCAGGATCT_AD5_AD6,-0.7227779,0.34661502,0.36296406,0.43680817,-0.43336576,0.093634546,0.18355276,-0.5058323,-0.019978603,-0.46040085,0.37741685,-0.05763303,-0.20443685,0.79248446,0.5812651,-0.18848443
AGCGTATAGAGGTTAT_AD5_AD6,0.007890969,0.103134766,-0.41881913,0.12918217,0.13905631,0.12107948,-0.015243113,-0.25655258,0.060737003,-0.14810385,0.3240513,0.25179684,0.21509597,0.072494015,0.10594791,0.58945817
AGCGTATTCGACCAGC_AD5_AD6,-0.36295798,0.57129806,-0.10852196,0.7116403,0.65421563,-0.08403035,-0.1607199,-0.0051385867,-0.6667907,-0.44809744,0.61017096,-0.059423365,-0.19420244,-0.4233983,0.0067019677,-0.23892067
AGCGTCGAGCGACGTA_AD5_AD6,-0.112380534,0.29044798,-0.053762835,0.5174809,-0.104276486,0.016040353,0.058061596,0.049169995,0.25603047,-0.027534597,0.051091302,-0.05148118,-0.20974864,0.1605609,0.7428982,0.19098157
AGCGTCGCAATAAGCA_AD5_AD6,0.06774285,-0.09335183,-0.5754529,-0.89115417,-0.031779885,-0.1583643,0.22563225,0.13654234,0.1011186,0.24937832,0.18034974,-0.025723701,0.02730534,0.48924765,0.7428568,1.313004
AGCGTCGCACATCTTT_AD5_AD6,-0.31012008,0.11990417,0.18872167,-0.23398267,0.38505372,0.39409107,-0.037907273,0.3548082,-0.39662924,0.5596504,0.19971505,-0.101756275,0.27749753,0.11945776,0.29306754,0.28008085
AGCGTCGCAGTGGAGT_AD5_AD6,-0.07894518,0.43581107,-0.42188123,-0.21719831,1.3218971,-0.14373712,0.17454575,-0.11264542,-0.40173805,0.68426985,0.3791174,-0.33535016,0.23572755,-0.30944148,-0.20806666,-0.03653064
AGCGTCGGTACCAGTT_AD5_AD6,-0.010318051,0.12072346,-0.72323567,0.09515616,-0.25033864,0.3999123,0.047930125,-0.7089568,-0.11410048,-0.5300736,0.3969778,0.34474424,-0.38979062,-0.12564239,-0.035907444,0.48514453
AGCTCCTAGAATTGTG_AD5_AD6,-0.34566933,-0.010596556,-0.3000653,0.30611673,-0.67880934,0.621597,0.14501685,-0.066591725,-0.18035205,0.3240223,-0.26517108,0.10150362,-0.34510815,-0.21881758,0.20433226,-0.21099176
AGCTCCTGTAAATGTG_AD5_AD6,0.5824378,0.045860633,0.38785145,0.37429082,0.07232731,-0.15890199,0.15597823,-0.75894755,0.5545379,-0.15508166,-0.14692947,-0.18896128,-0.12013334,0.29115131,-0.2042763,-0.52634084
AGCTCTCAGCTCCTTC_AD5_AD6,0.31830215,0.10879341,0.46474698,-0.3032963,0.72590864,-0.33697185,0.17843188,-0.54451483,0.68471307,-0.3775728,0.023250645,-0.2696128,0.07693169,0.60643286,-0.13478129,-0.30234665
AGCTCTCCACAGATTC_AD5_AD6,0.17533794,-0.176095,0.08032736,-0.5948182,0.06641035,-0.33229437,0.060464785,0.035545096,-0.27303544,-0.04911785,0.20975861,0.07229489,0.50935197,0.13952155,-0.3482794,-5.4788557e-05
AGCTCTCCAGCCAATT_AD5_AD6,-0.5999366,0.40377083,-0.49765402,0.25988817,-0.53059644,0.36220858,0.12562454,-0.29160237,-0.23788098,0.6792248,0.1437486,0.022683771,-0.29427359,0.27986524,0.7752676,0.36031824
AGCTTGACAACACCCG_AD5_AD6,-0.027844846,0.096300766,-0.3547346,-0.0006740749,-0.53870595,0.22820985,-0.04878409,0.58815116,0.019825727,-0.22376996,-0.19238484,0.123772785,-0.57830393,0.005063753,1.0144237,0.5190578
AGCTTGACACCAGGTC_AD5_AD6,0.21122931,0.43808264,0.77182525,-0.66219515,-0.09895206,0.067763634,-0.08806009,0.28880078,-1.2264805,-0.7257868,0.6777336,0.23051184,0.12770051,0.08337706,0.15401754,-0.146702
AGCTTGATCCAGAGGA_AD5_AD6,0.25066036,-0.032478247,0.47730452,0.22645916,-0.1576845,-0.013371878,-0.19252494,0.20997675,-0.3296315,-0.57275003,0.19008562,0.12906267,0.123866364,-0.22413042,-0.20406516,-0.33985296
AGGCCGTAGCCGGTAA_AD5_AD6,-0.61686504,0.59114075,-0.53477263,0.31451267,-0.1366825,-0.018069224,0.30679795,-0.36426055,-0.40183,1.0346057,0.05338285,-0.3501934,-0.28331304,0.39378798,0.9142503,-0.13364209
AGGCCGTGTAAGTGGC_AD5_AD6,-0.36843508,-0.28947064,-0.07843273,0.15408581,-0.344477,0.022861762,0.23233281,-0.06687097,1.0883301,-0.37254515,-0.70254064,-0.3010776,-0.8857234,0.9300701,0.80533046,0.77451956
AGGCCGTGTTGTACAC_AD5_AD6,0.065759234,-0.13087417,-0.02371117,-0.5160103,-0.017851379,-0.26019853,0.2411706,-0.30616352,0.3528447,-0.7721255,0.19960292,0.24177188,0.16817842,0.7303501,-0.037967514,0.49421176
AGGGAGTAGCACCGTC_AD5_AD6,-0.49650192,0.24532095,-1.4064462,0.29058647,-0.5797702,-0.18303297,0.28688616,-0.86191034,-0.14263313,1.4301244,-0.09821961,-0.094648935,-0.31811202,0.27764258,0.46849355,0.5470088
AGGGAGTCAATGCCAT_AD5_AD6,0.39497197,0.2949262,-0.34980172,-1.121854,0.55417234,-0.12583524,0.05277896,-0.16642946,0.43167126,-0.1760274,0.39826575,0.20685709,0.19116649,0.52664423,0.3529398,1.1125176
AGGGAGTTCAGTTGAC_AD5_AD6,-0.67061317,-0.37930697,-0.47741535,0.06964971,0.14244372,0.3325347,0.12343619,0.28270105,0.26891574,-0.14929774,-0.7371638,-0.25495604,-0.6514008,-0.17440462,-0.1854679,-0.05730345
AGGGAGTTCCCAAGAT_AD5_AD6,-0.3357096,0.07375721,0.36955473,-0.8014214,0.07243788,0.37717512,0.18186204,0.26475602,0.03438639,-0.37348813,-0.017736651,0.12533583,0.38054618,0.4437104,0.116714515,-0.14696322
AGGGAGTTCGTCCAGG_AD5_AD6,0.0720057,0.062070783,-1.1680127,0.06880856,1.1111304,-0.19879602,-0.07537142,0.54746664,0.07800525,0.6946927,-0.44607583,-0.19553782,-0.31463298,-1.0916703,-0.37388107,0.20759696
AGGGATGAGATAGCAT_AD5_AD6,-0.4018919,0.1714767,0.1670363,0.08889865,0.3036435,-0.010448721,0.26437864,0.010599866,0.15606096,0.36995915,-0.4015204,-0.5525508,-0.36114985,0.32793787,0.4186514,-0.5509827
AGGGATGCATGCGCAC_AD5_AD6,0.06594895,-0.28133252,0.47712746,0.32345143,-0.8595229,0.1796389,0.14492221,-0.59806377,0.43676385,-0.13262767,-0.20699988,0.057968754,0.035522,0.48934695,0.0011538244,-0.31435853
AGGGATGGTCTTGTCC_AD5_AD6,-0.20688853,-0.56719345,0.42198065,0.5150271,-0.6514182,-0.019914068,-0.22498618,-0.19205895,-0.15940426,1.1839993,-0.3004459,-0.095078275,0.46333486,-0.16168901,-0.78585297,-0.31105012
AGGGTGACATTCTTAC_AD5_AD6,0.073314585,-0.10230721,-0.1255611,-0.8808033,0.12417759,0.040207822,0.07503227,0.78822744,-0.1209661,-0.084770456,-0.2766157,0.082450755,0.09282165,-0.290668,-0.048931528,0.007380312
AGGGTGAGTAGGAGTC_AD5_AD6,0.367401,0.0146477,-0.5228837,-0.13992676,0.7661595,-0.45669758,-0.13737947,0.03964047,0.025311762,0.35396722,0.0120215025,-0.09567875,-0.058219958,-0.5072931,-0.44406807,0.361198
AGGTCATTCTTTAGTC_AD5_AD6,0.42778668,-0.06685902,0.18500783,-0.032008328,0.38403437,0.17565387,-0.08644401,0.23878737,0.2769806,0.20435716,0.0014073801,-0.02303479,0.2781423,-0.11079011,0.15694164,0.28551343
AGGTCCGGTTGAGTTC_AD5_AD6,-1.0578809,0.29990506,0.10528853,1.3112366,0.15751041,0.57159096,-0.22240047,-0.35314208,-0.83267254,0.1400228,0.44095865,-0.013532812,0.14945582,-0.5732272,-0.5817221,-0.7784189
AGTAGTCAGGCTCTTA_AD5_AD6,0.17066653,0.14399527,-0.66715974,-0.09948231,-0.08547205,-0.44227293,0.078653485,0.87271667,0.06110012,-0.036678456,-0.31991652,-0.13881312,-0.56101674,-0.2894859,1.0723,0.47921732
AGTAGTCGTCTGCGGT_AD5_AD6,0.1968998,-0.15295307,0.5593262,0.049565345,-0.26448584,-0.32604846,-0.053576827,-0.17782846,0.026311876,0.47236466,0.0835687,-0.16577762,0.3766061,0.37859356,0.022641765,-0.12788448
AGTAGTCGTTAGGGTG_AD5_AD6,-0.06227039,0.12130338,0.6110215,0.6999364,-0.8306845,0.1300547,0.04681162,-0.2734832,-0.38111454,-0.14686994,0.12526472,-0.08306638,-0.30169487,0.271055,0.5240573,-0.320135
AGTAGTCTCGGAAACG_AD5_AD6,0.063030735,-0.17825742,0.5027388,-0.17419612,-0.6817416,0.3677246,-0.29130155,0.4827508,-0.47587836,0.7850917,-0.34122905,0.043555114,0.16142459,-0.35862648,-0.18222757,-0.5786559
AGTCTTTAGACTAAGT_AD5_AD6,-0.5293093,0.24414995,0.5606109,0.57067543,0.23925082,-0.21102878,0.19221626,0.109589,-0.5611975,0.25418097,-0.15072253,-0.46262693,0.06149681,0.20108391,0.042075418,-1.0688097
AGTCTTTAGCCCAATT_AD5_AD6,-0.44826528,0.31152418,0.41445267,0.8248399,-0.54132015,0.09308633,0.22806776,-1.2395129,0.35838893,1.0209199,0.2150436,-0.42139342,0.02870623,1.1033958,0.6676515,0.055351257
AGTGAGGAGTGCAAGC_AD5_AD6,0.08145761,0.07763768,0.13631994,0.62102854,0.10966552,0.34320188,-0.03451175,-0.34289613,-0.022802807,-0.32411888,0.35500476,0.2086721,0.29413804,-0.46571428,-0.44718894,-0.55911773
AGTGAGGTCCATGAGT_AD5_AD6,-0.2810133,-0.39534488,-0.5887735,-0.43303698,-0.78642404,0.21817279,0.13338843,0.31665513,0.32757038,-0.31389406,-0.48386398,0.17471117,-0.3936076,-0.0130597865,0.24511984,0.4602728
AGTGGGAGTCCAAGTT_AD5_AD6,0.05350362,-0.23149885,-0.21255343,0.10801578,-0.58316386,0.56145954,-0.07700947,0.30242702,0.31179678,-0.64979184,-0.18366738,0.34279013,-0.37368244,-0.35898826,0.17189923,0.389189
AGTTGGTTCTGAGTGT_AD5_AD6,-0.0124062775,-0.27589664,-0.2558011,-0.3765729,-0.70187354,0.4233821,0.23039794,0.02868772,0.00725313,-0.086525895,-0.20867404,0.24562204,-0.13096282,-0.023540009,0.116483256,0.14012581
ATAACGCCATTCACTT_AD5_AD6,0.23464297,-0.36483866,0.1642285,0.5159322,-0.63294023,-0.17530636,0.036829498,-0.27834678,0.7791515,-0.3912861,-0.21722361,0.14073834,-0.17233747,0.3221548,0.0111299725,0.23754324
ATAACGCGTTGGTGGA_AD5_AD6,0.38759974,0.03264507,0.31584275,-0.7784358,-0.6103968,-0.060637906,0.16055709,0.051949285,0.55050063,-0.45559555,-0.15545149,0.10837399,-0.034100544,0.6285002,0.66175777,0.14632249
ATAACGCTCCCTAATT_AD5_AD6,0.37151554,-0.20149706,-0.51055205,-0.0067217764,0.09854769,-0.1671123,-0.22348054,-0.24744281,0.402028,1.017283,-0.33844718,-0.07599325,0.115189105,-0.27446532,-0.3876796,0.37287816
ATAAGAGTCATAGCAC_AD5_AD6,0.035157043,-0.19668311,-0.06566827,-0.024328044,-0.14846572,0.012840412,-0.15919806,-0.049369343,-0.20912158,-0.033653196,0.23812526,0.25701094,0.18521826,-0.28970042,-0.55728966,0.11669712
ATCACGACAAAGTCAA_AD5_AD6,-0.18914776,-0.456388,-0.18372515,0.0013635561,-0.29537147,-0.19388758,0.05761745,0.069572434,0.36489785,-0.487143,-0.4833913,-0.09472605,-0.6758811,0.25104523,0.02217786,0.32930937
ATCACGAGTTCGTCTC_AD5_AD6,-0.38328838,0.07560689,0.14468014,0.30013067,-0.4631384,-0.3261918,0.099502005,-0.16370882,-0.3266077,1.3426495,-0.13117723,-0.38979575,0.0049009565,0.36332497,0.38675603,-0.021179592
ATCATCTAGGTAAACT_AD5_AD6,-0.105264395,0.15795167,0.5116935,-0.063274145,-0.28468952,-0.2674471,0.26624352,0.026332727,0.31678072,0.091029525,-0.45030257,-0.47212347,-0.45552552,0.7124914,0.76247674,-0.49089128
ATCATCTGTGTGGTTT_AD5_AD6,0.0036028994,0.14787018,-0.16724938,0.49071908,-0.46465024,0.2829976,-0.15156816,0.008373683,-0.10247903,0.5932532,0.24917933,0.14146553,-0.034039695,0.0018662962,0.6586749,0.75424296
ATCATCTGTTAAGAAC_AD5_AD6,-0.0402553,-0.42144814,-0.25818115,0.072435364,-0.6390331,-0.012754537,-0.09706472,0.24763268,0.2204613,0.50332814,-0.40267757,0.19371742,0.13589945,-0.21708037,-0.1410671,0.16880018
ATCATCTGTTCCACAA_AD5_AD6,0.42115968,0.3877845,0.23625623,-0.33923495,0.96498865,-0.3289811,-0.09337337,0.28898248,-0.22240685,0.6655603,-0.027228849,-0.271051,0.25593293,-0.44961005,-0.22750759,-0.47037125
ATCATCTTCCAAGCCG_AD5_AD6,0.25294945,-0.08685043,-0.6330212,0.17173302,0.44183472,-0.27856535,-0.0018841152,0.4347628,1.1495162,0.026885878,-0.91150266,-0.43353647,-1.0406309,-0.036554884,0.7583378,0.6174137
ATCCACCTCGTAGGTT_AD5_AD6,0.6488119,-0.23893051,0.79475963,-0.44226927,-0.49894413,0.004653226,-0.15625562,0.48853755,0.28760216,-0.47720718,-0.07804826,0.202841,0.14741017,0.19751874,0.25107184,0.033389095
ATCCGAACAGTTAACC_AD5_AD6,0.2877762,-0.57144624,-0.26906753,-0.90325946,0.027231507,-0.3296263,0.08535315,0.3319777,0.5018288,0.41232517,-0.5921403,0.048855767,0.09024052,0.01776239,-0.37469167,0.42977893
ATCGAGTTCGTTGACA_AD5_AD6,0.3726226,-0.44516435,0.3539533,-1.1225003,-0.16368513,-0.26730943,0.10916839,0.83300793,0.33253354,-0.3360808,-0.51601756,-0.14269626,-0.06133545,0.4484413,0.5113661,0.326317
ATCGAGTTCTCCTATA_AD5_AD6,-0.6269026,0.23713094,-0.40191162,-0.31480908,0.0191211,0.7669655,0.21054877,0.065461054,-0.31051168,-0.2998824,0.032261815,-0.027575351,-0.43085417,-0.15247476,0.42064753,-0.0130502
ATCTACTAGATATGCA_AD5_AD6,0.40542296,-0.43685672,0.7496163,-0.80691457,-0.17075688,0.20122132,0.02866006,0.3873909,0.4249419,-0.5669464,-0.018273907,0.28571796,0.6514249,0.25764063,-0.22655772,0.06264206
ATCTACTAGTGGAGTC_AD5_AD6,0.15481591,0.04424065,0.28575733,0.06090283,0.09624212,-0.39745986,0.1411503,-0.7834131,0.5691797,0.37095442,0.065021515,-0.28234223,0.106845945,0.961508,0.24310292,0.43625587
ATCTACTCATGCATGT_AD5_AD6,0.5196156,-0.20353988,0.82677025,-0.48768818,0.0034428572,-0.39792693,0.08299885,0.21482807,0.84706444,0.6391129,-0.29003057,-0.3555546,0.52044564,0.9840469,0.7149284,0.46380013
ATCTACTGTCCTCTTG_AD5_AD6,0.095890395,0.0636464,-0.31622472,0.020276885,0.50036037,0.055891816,-0.16600387,0.4736723,0.01633558,0.7690522,-0.3091784,-0.059534892,0.18025976,-0.6562681,-0.25646558,-0.14726351
ATCTGCCCAGTGGAGT_AD5_AD6,0.32386538,0.4486732,0.63412935,0.4665218,0.14656118,-0.019050201,0.23747933,0.12151371,0.33827636,-0.94756687,-0.09684358,-0.31337485,-0.7146656,0.45001307,1.0827166,-0.35981503
ATCTGCCTCATTGCCC_AD5_AD6,0.3542834,-0.011082189,-0.73426795,0.18416487,-1.221826,-0.2322779,0.07206873,-0.48738626,0.23777455,0.19765675,0.0967841,0.36950302,-0.33717158,0.22810091,0.6733511,0.7924247
ATGAGGGGTAACGACG_AD5_AD6,-0.063929394,0.31379008,-0.14456633,0.6596246,0.05891425,-0.23458792,-0.07958648,-0.3600569,0.023411345,-0.071523964,0.30554366,-0.11201861,-0.4766228,0.17401457,0.41166666,0.29338434
ATGAGGGTCGGAGCAA_AD5_AD6,-0.092927404,-0.39025682,0.5275645,1.1290685,-0.24328275,0.21069117,0.2339031,-1.0526885,0.77698606,0.46193808,-0.39593586,-0.427716,0.037697103,0.62192565,-0.2162704,-0.43624544
ATGCGATAGATAGGAG_AD5_AD6,0.61642987,0.15039797,0.40478212,-0.53697914,-0.24954438,-0.25527292,-0.06841355,0.6405289,-0.2805018,1.396273,-0.22915304,-0.27282438,0.42042053,-0.059456617,0.6959747,-0.068548724
ATGCGATCACCCTATC_AD5_AD6,-0.28318423,0.34552264,0.24112484,0.21450408,-0.50174135,0.1306023,0.2444725,-0.8498434,-0.26931813,-0.9999188,0.5803446,0.1974292,-0.16916366,0.4645879,0.10465642,-0.5431241
ATGCGATTCGCCTGTT_AD5_AD6,0.06183877,-0.009403685,-0.19151582,-0.634203,1.011279,0.11162875,0.26432148,0.42972827,0.1688676,-0.7426624,0.03497729,0.09834959,0.21424302,-0.08470929,-0.20864086,-0.04505947
ATGGGAGTCCTGCAGG_AD5_AD6,-0.12198475,-0.31321132,-0.1287061,0.14252304,-0.16797565,0.03093522,0.045011476,-0.002947527,0.40348467,-0.12823106,-0.3050351,0.028997695,0.019011384,-0.115292385,-0.23888084,0.11523384
ATGGGAGTCGCTGATA_AD5_AD6,0.17177603,0.01624547,0.0915007,0.9504472,-0.06910146,0.11455585,-0.34596786,-0.5822504,-0.47651255,0.51993877,0.45783624,0.08025925,0.25633436,-0.4379078,-0.59177446,-0.031239739
ATGGGAGTCTGCTGTC_AD5_AD6,0.07371041,-0.32689518,-0.100207865,-0.506327,0.08969861,-0.53947896,3.993941e-05,0.133564,-0.16269273,0.2701213,0.067937806,0.0019162778,0.4114203,0.2508798,-0.31862453,0.49018317
ATGTGTGAGCATGGCA_AD5_AD6,0.2863188,0.0037872447,-0.22039884,0.12036309,-1.3211883,0.060603105,0.02943889,-0.45734838,0.1975048,0.6216678,0.032754965,0.24821791,-0.117094494,0.38017562,0.7401416,0.7646571
ATGTGTGGTCTGATCA_AD5_AD6,-0.08412394,0.39749324,-0.26242933,-0.77582806,0.99620384,-0.15137553,0.11086391,0.18414973,-0.51248956,0.59322727,0.31955045,-0.23496519,0.35567924,-0.17464665,-0.032877646,0.033091906
ATTACTCGTACTTAGC_AD5_AD6,-0.17817563,0.36215323,-0.67954326,-0.28236657,0.5450165,-0.043632902,0.37821913,-0.6649367,0.12598312,-0.10345055,0.5774634,0.016891064,0.041532103,0.66368186,0.4894548,0.88982797
ATTACTCGTGTTCTTT_AD5_AD6,0.20681137,-0.015815424,0.57422847,0.33828124,1.21031,-0.35569102,-0.0381795,0.3619782,0.23588453,-0.3726576,0.03030492,-0.24735197,0.32448122,-0.14823195,-0.43181205,-0.5149473
ATTACTCTCGTCTGCT_AD5_AD6,-0.2691047,-0.53777087,0.80483836,0.25067192,-0.14737967,0.7674877,0.1268178,-0.65228033,0.17516395,0.14762537,-0.059998408,-0.16355358,0.2466201,0.26236135,-0.73438454,-0.2961824
ATTCTACAGAAACCTA_AD5_AD6,0.17931579,0.25886917,0.12613985,-0.3534328,0.70393556,-0.33707175,0.043596793,0.20248644,-0.27242362,0.886271,0.22293879,-0.45006672,0.3252202,0.26464793,0.48913896,0.38007426
ATTGGACCAAGCCTAT_AD5_AD6,0.10435411,-0.32903144,-0.25117326,0.08629649,0.55101323,-0.46558416,-0.09360611,0.20951965,-0.21119995,-0.1806981,-0.034540936,0.047120884,0.168903,-0.5775167,-0.98573065,-0.30843812
ATTGGACGTCCCTTGT_AD5_AD6,-0.66660076,-0.16818002,-0.28731072,-0.13200146,-1.2405591,0.07831406,0.27061683,-0.8039982,0.014649804,-0.33659402,0.2656467,0.19680601,-0.4661192,1.0998752,0.5940474,0.9361307
ATTGGACTCAGTCCCT_AD5_AD6,-0.36504945,0.45240712,-0.35720593,-0.26407743,0.49474207,-0.113069795,0.08415314,-0.031887457,-0.27920017,0.27096266,0.18588933,-0.053019986,0.017389676,0.14621247,0.12958066,0.18930973
ATTGGTGGTTAAGAAC_AD5_AD6,0.092283264,-0.04250437,-0.20107292,0.109939255,0.95978785,-0.13898708,0.31702992,-0.18213233,0.550049,-1.2075455,0.22180156,-0.042505894,-0.23221146,0.20374814,0.008077791,0.22047192
ATTTCTGCACATTTCT_AD5_AD6,-0.24756204,0.14994207,-0.1579808,-0.0061488072,0.19478981,-0.046632446,-0.033098705,0.26139718,0.40782306,-0.49882454,-0.49442402,-0.115218066,-0.76015127,0.0020840836,0.13147308,0.052489843
CAACCAACACTAAGTC_AD5_AD6,0.1532926,0.32628602,0.4770691,0.52103746,-0.46735296,-0.5417798,-0.06803206,-0.21935058,-0.045069434,-0.49905068,0.3867699,0.1893969,0.26897496,0.2968836,0.22521318,-0.48048282
CAACCAATCATAAAGG_AD5_AD6,-0.45153466,-0.07741688,-0.54206717,0.92115146,-0.96667254,-0.009442601,-0.08869164,0.18267412,-0.291021,0.6225414,0.025772434,0.19564027,-0.04077456,-0.2520064,0.49740145,0.27976394
CAACCTCCATCAGTCA_AD5_AD6,-0.019446129,0.13334334,-0.30710858,-0.4079733,-0.28647023,-0.08015582,-0.008598343,0.037443105,-0.06302166,-1.2949686,0.19306226,0.3822807,-0.44508773,0.06737864,0.065766744,0.42939556
CAACCTCGTAAGTGTA_AD5_AD6,0.53545654,-0.16698514,0.63210136,-0.018524263,-0.27692616,0.3100189,-0.23245457,0.25689393,0.25866187,0.10239142,0.03929982,0.14355522,0.3561748,-0.3055761,0.011544631,-0.099290885
CAACCTCGTGTAAGTA_AD5_AD6,0.059478723,0.26131126,-0.040940214,-0.18898761,-0.095729604,0.307141,-0.07770158,0.046668045,-0.30263552,0.29494315,0.33097467,0.14344585,0.2723387,-0.23724076,0.19175941,-0.010033545
CAACCTCTCACCTCGT_AD5_AD6,0.26109946,-0.22738054,-0.045226205,0.929325,0.030781621,0.23352115,-0.5722429,-0.40213674,-0.40956375,0.64925146,0.12157771,0.098174125,0.17386633,-0.9586563,-1.1093696,-0.37206778
CAACCTCTCGAACGGA_AD5_AD6,-0.22580461,-0.0686137,0.19142666,-1.1411899,-0.54941636,0.13874878,0.10040011,-0.20178702,0.093769446,0.5977445,-0.040357046,-0.021218907,0.19380145,0.7816755,0.2846945,0.61774933
CAACTAGCACCGATAT_AD5_AD6,0.44348723,0.12497183,0.9014353,-0.85604405,0.60762167,-0.44130737,0.07443355,0.16038819,-0.003269981,-1.3234042,0.46010476,0.208351,0.6283875,0.5280079,-0.31562093,-0.3502002
CAACTAGCATGCAATC_AD5_AD6,-0.2371387,-0.034856267,0.08794075,0.12382125,-0.18934248,0.5267868,-0.23473859,-0.6744938,-0.308103,0.3217498,0.3767331,0.18109202,0.19550772,-0.13405903,-0.6604272,0.04965752
CAACTAGGTCTCCCTA_AD5_AD6,-0.15866527,-0.03067965,0.5484904,-0.6007243,-0.092310265,0.7114932,0.027679019,-0.12221005,0.28917545,-0.2870578,-0.1896174,-0.03726846,-0.09703379,0.42686543,0.025293801,-0.11370535
CAAGAAAAGTAGGCCA_AD5_AD6,-0.07214994,-0.22982194,-0.4657924,-0.6351309,-0.019642608,0.16663072,0.1942185,-0.365791,0.12545443,0.31933576,0.011700127,0.1351933,0.1534549,0.06773804,-0.40504026,0.27536088
CAAGAAACAAGACGTG_AD5_AD6,-0.0793842,0.2047369,-0.35545963,-0.23974103,1.3009179,-0.219742,0.18015702,0.1982444,0.11430152,-0.23373756,0.27128994,-0.25435176,0.09304597,0.016892824,0.1813253,0.38919058
CAAGAAACATCAGTCA_AD5_AD6,0.6099504,-0.5158491,0.70563656,0.103651986,-0.12694931,-0.4502034,0.020324029,-0.73205465,0.43019,0.38640285,0.06956927,-0.0660409,0.7554373,0.46476412,-0.80910516,-0.25751206
CAAGAAAGTCTCATCC_AD5_AD6,0.3463875,-0.78893805,0.04279622,-0.117967755,-0.111764364,-0.0029998235,-0.08265561,0.41292807,0.53201985,0.34069866,-0.9200231,0.019267023,-0.063103616,-0.48194245,-0.84259343,-0.117646724
CAAGAAAGTGACCAAG_AD5_AD6,0.0840485,-0.21968317,0.124690756,0.4945618,-0.17726997,-0.05519473,0.01907164,0.17080407,0.121203296,0.46777597,-0.4242436,-0.33794722,-0.43717885,-0.05749687,0.2725891,-0.014217452
CAAGAAATCATAGCAC_AD5_AD6,-0.5382868,-0.10821091,-0.66086125,0.33808106,-0.7573257,0.67262805,0.13181923,-1.1901345,0.074050725,0.89237547,0.2322555,0.18739884,0.22841053,0.17930196,-0.21472389,0.48118424
CAAGATCGTGGCTCCA_AD5_AD6,0.28741515,0.31746915,0.06509328,-0.096385464,0.7353063,-0.27053005,-0.14335005,-0.33178833,-0.01576376,0.16509914,0.19683763,-0.12636258,0.31362647,-0.20694308,-0.47156253,-0.5046459
CAAGATCGTGTGCCTG_AD5_AD6,0.68564975,0.004048513,-0.18703066,-0.18393916,0.7481268,-0.047758076,-0.21352845,0.759916,0.17152408,-0.05871535,-0.41709852,-0.07937778,-0.22944464,-0.72031164,-0.07829189,-0.015252201
CAAGATCTCTCCAGGG_AD5_AD6,0.049540155,0.43026146,-0.29924938,0.007723849,0.56730676,0.1873637,0.028925456,-0.4586216,-0.39578542,-0.23133878,0.53764355,0.18229665,0.17427325,-0.21192335,-0.39981827,-0.08528189
CAAGTTGCAACGATCT_AD5_AD6,-0.1767253,0.061714742,-0.63393,0.17514701,-0.2712938,-0.24900715,0.18718366,0.2896032,0.22411972,0.385809,-0.35745504,-0.11976584,-0.50693184,0.22939342,0.8738887,0.61184716
CAAGTTGCACACATGT_AD5_AD6,-0.57906276,0.1172068,0.43978077,0.21329089,-0.091019586,-0.25159165,0.15184647,0.21410449,-0.2749518,-0.23056644,0.06928612,-0.27056813,-0.04328084,0.47496974,0.49159792,-0.45110145
CACAAACCACATGGGA_AD5_AD6,-0.22793475,0.036425248,0.05834794,0.42917863,-0.89645755,0.71687263,-0.028439421,-0.39389664,-0.38458398,-0.87796265,0.48770937,0.51662755,-0.0028326532,-0.26504984,-0.09721323,-0.031555206
CACAAACTCCACGTTC_AD5_AD6,-0.46269622,-0.11354976,-0.26723802,-1.0940785,-0.2929516,0.1324222,0.13722269,0.7123983,-0.43124276,-0.38890228,-0.120766796,0.05787527,-0.13659723,0.20221889,0.4568041,0.24377647
CACAAACTCCGTTGCT_AD5_AD6,-0.07786231,-0.26242554,0.049158517,0.040272802,0.15826382,-0.021622904,0.3194407,-0.46589124,0.5862587,-0.11936006,-0.26467887,-0.15703967,0.014051096,0.40658042,-0.32197642,-0.07395712
CACAAACTCTTTACAC_AD5_AD6,-0.41949156,0.29824108,-0.05526712,-0.0069497162,-0.4152432,0.101493925,0.022189027,0.52258766,-0.82672477,-0.56620437,0.14120606,0.0870089,-0.31780314,-0.20195486,0.4471473,-0.39622116
CACACAACAAGTAGTA_AD5_AD6,-0.0779178,-0.20295733,0.010251065,-0.38741422,0.41052213,0.20258963,0.06213558,0.11126608,-0.34885895,-0.6845667,0.0578263,0.16065004,-0.04951653,-0.29015115,-0.8397945,-0.22270918
CACACAACACAAGACG_AD5_AD6,0.32976097,0.52176815,0.18769875,0.036271527,0.7656333,-0.53560156,-0.11136409,0.56809795,-0.005127271,-0.5773141,-0.015253833,-0.149494,-0.32698524,-0.34638995,0.21774562,-0.4485754
CACACAAGTACCGTAT_AD5_AD6,0.21655315,0.17992611,-0.06695412,-0.9736527,-0.41947162,0.19304277,0.08392157,-0.43707076,-0.3870903,0.24068373,0.60649914,0.3133247,0.44092554,0.4338427,0.20496961,0.58491665
CACACAATCTCTAGGA_AD5_AD6,0.26221675,-0.095041044,0.0017621134,-0.0025228572,0.40996227,0.5447088,-0.11035471,0.15141584,-0.21809752,-0.5177737,0.23336847,0.110287435,-0.16954872,-0.5576962,-0.24225004,0.14150777
CACACCTAGACAGGCT_AD5_AD6,-0.5846322,0.41280112,-0.23422112,-0.35215938,-0.112145975,0.46571663,0.1603324,0.12903833,-0.44173867,0.1288397,0.32852858,0.014935137,-0.35983366,0.44426283,0.95399153,0.61115754
CACACCTCATACGCTA_AD5_AD6,-0.5153891,0.39745805,0.36760506,-0.08299313,0.5574147,0.32527968,0.063229576,-0.22474301,-0.26979503,0.054246426,0.3198231,-0.14670932,0.1465197,0.26517707,-0.052540295,-0.30279955
CACACTCTCACATAGC_AD5_AD6,0.044407103,-0.027465569,0.6485305,-0.57041264,0.10721743,-0.10325369,0.08042053,0.3863353,-0.5091934,-0.3330198,0.18711403,0.013110173,0.57493293,0.087904796,-0.2868133,-0.43159702
CACAGGCCAAGCGATG_AD5_AD6,-0.54571533,0.16804102,0.5520728,0.28195977,-0.07075078,0.37104517,0.16501714,-0.71176267,-0.3363945,0.599845,0.18503836,-0.38735652,0.14966774,0.42757723,-0.005407236,-0.63634586
CACAGGCTCCAGTAGT_AD5_AD6,-0.09192855,-0.26459783,-0.07203553,-0.54642785,-1.2300681,-0.15426242,0.28801763,-0.5624598,0.17309141,-0.18288283,0.23484755,0.18035048,0.10875017,0.97336113,0.5929379,0.6843676
CACAGTACAGGCAGTA_AD5_AD6,-0.28722584,0.1792241,0.603239,-0.2573619,-0.5420498,0.32667872,0.1774256,0.47208834,-0.6625158,-0.33059904,-0.040491994,-0.09432282,-0.14295305,0.25501806,0.57533437,-0.52543133
CACAGTAGTCAACATC_AD5_AD6,-0.115640596,-0.1880631,0.66860384,-0.38698298,0.17933437,-0.01984547,0.12793489,-0.52601373,0.048425537,0.054280836,0.20901658,-0.1712131,0.26325536,0.7484384,-0.3777443,-0.008797744
CACAGTATCCATGAGT_AD5_AD6,-0.339368,-0.3278384,0.40858582,-0.47301215,0.10308387,0.05673129,0.17604052,0.06824082,0.17088154,0.98789597,-0.4337053,-0.4186623,0.38716954,0.28351387,-0.20729011,-0.36037138
CACATAGGTCACACGC_AD5_AD6,-0.02301474,-0.011268889,0.7622355,-0.46693927,0.15192029,-0.052014187,0.21408302,-1.2698578,0.08957848,0.5025269,0.28251326,-0.21541376,0.5298326,0.86030966,-0.8263156,-0.5854864
CACCACTCAATCCAAC_AD5_AD6,-0.01702283,0.4145159,-0.196908,0.3601224,-0.24952541,-0.09720599,-0.06225719,0.14243554,-0.17422955,0.6711893,-0.2386522,-0.20484611,-0.47127637,-0.062566,0.7780707,-0.0077866544
CACCACTCAATGTAAG_AD5_AD6,-0.6915591,-0.0516344,-0.05277693,0.34745115,-0.36268732,0.14104968,0.054563086,-0.6823816,-0.15717785,0.63252896,-0.062662736,-0.1275631,0.016658777,0.16206062,-0.45647117,-0.33760425
CACCAGGCACCAGCAC_AD5_AD6,-0.13793904,-0.6243328,-0.6100613,-0.06439208,-0.39660168,0.1035626,-0.028928174,-0.15479505,0.27103543,0.56899333,-0.3833698,0.19686185,0.14793333,-0.3878688,-0.8620666,0.39677507
CACCAGGGTTTGTGTG_AD5_AD6,0.63653,-0.106029786,0.8983718,-0.6190183,0.40197456,0.017492905,-0.021854652,0.19290678,0.3948781,-0.8661111,-0.047695912,-0.073211215,0.04078617,0.23011626,-0.07960561,-0.25739917
CACCTTGTCTAGCACA_AD5_AD6,0.2632568,0.016481606,0.08393896,1.0513182,-0.28456235,0.060460847,-0.26374608,-0.52710664,0.14022067,-0.22031248,0.038011048,0.049413808,-0.2606197,-0.29279435,-0.19758642,-0.26218748
CACTCCACAAGGTTTC_AD5_AD6,-0.3024949,0.4419044,-0.43343866,0.41479328,1.2424952,-0.24012654,0.20430776,-0.22273679,-0.62357086,0.9272359,0.42400706,-0.42222387,0.329933,-0.06722832,-0.033054646,-0.17576759
CACTCCATCTGCAAGT_AD5_AD6,-0.5216204,0.37896892,-0.47110116,1.381249,-0.34846035,0.40066305,0.041467536,-0.39518514,-0.51505303,0.5566256,0.022322152,-0.078538544,-0.5232272,-0.52816075,0.26523286,-0.74364096
CAGAATCCAATACGCT_AD5_AD6,0.31470564,-0.011542413,0.55210185,0.32320416,1.1885877,-0.42693624,0.035143714,0.27528936,0.3410942,-0.1641619,-0.022583764,-0.3410683,0.40792176,-0.015786301,-0.2477026,-0.53506917
CAGAATCGTTGAGGTG_AD5_AD6,-0.27787346,-0.5151614,-0.11624739,-0.13252968,-0.5655302,0.44421354,-0.13755181,0.59866333,-0.1478664,0.72733676,-0.73156655,0.066845186,0.15103757,-0.51807284,-0.39611283,-0.10963991
CAGAATCTCCACTCCA_AD5_AD6,0.0379154,-0.08309812,0.13136673,-0.99678576,0.23261781,0.31808066,-0.13197365,0.5683343,-0.6928787,1.2101994,-0.0032974032,-0.15988632,0.443705,-0.04960524,0.049986903,0.41792724
CAGAGAGCAGGGATTG_AD5_AD6,-0.30071503,0.11238165,-0.35584226,1.0614201,0.79149014,0.07183501,0.04503042,-0.07336434,-0.097421825,-0.2343902,0.022486385,-0.17376241,-0.23346975,-0.60811204,-0.4215355,-0.3819876
CAGAGAGGTTAAGATG_AD5_AD6,-0.23621377,-0.67523456,-0.6128763,0.37679976,0.08799957,-0.16517778,0.16517094,0.04007206,0.67666215,0.3435803,-0.8150115,-0.20899837,-0.2636088,-0.30274445,-0.5715151,0.040510744
CAGAGAGTCCCTAATT_AD5_AD6,-0.6599041,-0.20189343,-0.0154479835,0.52081615,-0.19293691,0.03322011,0.30885231,-0.87438405,0.20364809,0.26095116,-0.021290448,-0.1763259,-0.12959263,0.52981204,-0.3284017,-0.26517856
CAGATCACAACAACCT_AD5_AD6,-0.026576545,-0.06197488,0.013220972,0.6692656,-0.39666817,-0.19681308,-0.057766058,-0.5223976,0.18987754,0.6895733,-0.1727349,-0.11031329,0.20055954,0.14544843,-0.10809563,-0.21042481
CAGATCACAGGCTGAA_AD5_AD6,0.08115113,-0.12184692,-0.1435988,0.66439646,-0.48159742,-0.041033518,-0.07879874,-0.42739612,-0.24987541,0.37247282,0.094027825,0.20283177,0.312551,-0.3760968,-0.5651312,-0.37083966
CAGATCATCACGCGGT_AD5_AD6,-1.0298924,0.8174722,-1.004106,-0.49729273,0.48977035,-0.2500337,0.54625124,-0.61904955,-0.64212364,-0.70734966,0.8836344,-0.008884165,-0.43796805,0.9665064,0.86614513,0.69482845
CAGATCATCTAACTCT_AD5_AD6,-0.37834874,0.16576596,-0.37974548,0.067447305,0.38595408,0.0015849923,0.1760499,-1.035214,-0.4251168,-0.81268984,0.7341053,0.16957438,-0.094268516,0.2344066,-0.5916829,0.10844509
CAGCAGCGTGTGAATA_AD5_AD6,0.030452276,-0.06002071,0.28445616,0.11412555,-0.6725198,0.46001238,0.00957394,-0.6868902,0.1339669,-0.32989034,0.4823476,0.33968103,0.18002138,0.13121215,-0.086811714,0.025031133
CAGCATAGTCTCTCTG_AD5_AD6,0.22633035,-0.22793382,-0.0015693635,-0.0954277,-0.27420485,0.04276596,-0.15545854,0.17043404,-0.267771,0.26373366,-0.23955248,0.070965745,0.07537707,-0.44021755,-0.37338048,-0.25797173
CAGCATAGTTGATTGC_AD5_AD6,0.44783762,-0.13455617,0.25006935,-0.6164215,1.2038741,-1.0271208,0.14685568,0.19138916,0.08948897,-0.27706578,0.14683647,-0.29610538,0.48741502,0.37487465,-0.38370612,-0.10580333
CAGCCGAGTGGCAAAC_AD5_AD6,-0.17163678,0.42472333,0.544908,-0.65517384,-0.8481768,0.3631613,0.27604997,-0.61277056,-0.56514764,0.18859455,0.5764675,0.14165902,0.25141764,1.0790193,0.8381402,0.28840044
CAGCCGATCTTGCATT_AD5_AD6,-0.48429564,-0.10499611,-0.2842933,0.06693771,-0.21864842,0.41101953,-0.15050957,1.036459,-0.13722906,-0.17176153,-0.48506978,0.12509842,-0.30832368,-0.7763603,0.091767535,-0.16841865
CAGCGACTCGTGGTCG_AD5_AD6,-0.23899673,-0.42193303,0.42914593,-0.15673551,-1.1008207,0.7266152,-0.23827605,0.53381073,-0.2562026,0.36400065,-0.01323959,0.41176292,0.6090511,-0.23339057,0.00754741,0.23179273
CAGCTAACAACGCACC_AD5_AD6,-0.02131323,-0.56044006,0.72825694,0.5931094,-0.7567399,0.46250826,-0.03740118,-0.63214153,0.5160164,-0.1913125,-0.3992062,-0.0062850486,-0.056158848,0.16228186,-0.63715816,-0.4659833
CAGCTAAGTTACCGAT_AD5_AD6,0.02435866,-0.20374984,0.13327155,-0.33271238,-0.1687778,0.35360432,0.12451895,0.10805996,0.18271752,-0.51213187,0.25419292,0.4081601,0.6701895,0.14175263,-0.10468003,0.21068764
CAGCTAATCAGTCCCT_AD5_AD6,0.2907029,-0.034820225,-0.5594858,0.33225387,0.21662226,0.31233558,-0.1694071,-0.14013913,0.6378101,0.05531822,-0.13291569,0.16101097,-0.11814175,-0.49841043,-0.12053811,0.46306145
CAGCTGGCAATGAAAC_AD5_AD6,-0.21113744,0.2592429,-0.16943946,0.73739785,-0.54842025,0.08613287,-0.51689684,1.1648859,-1.2358425,-0.5405673,-0.0766631,0.1915168,-0.666368,-1.1560472,0.32210103,-0.5698751
CAGCTGGCACAAGTAA_AD5_AD6,-0.17263229,0.36952534,0.07689683,0.3258181,0.3985945,0.104296245,-0.1839554,0.4640319,-0.3565541,-0.25327012,-0.019227536,-0.28736728,-0.6244356,-0.18181333,0.6073228,-0.25190046
CAGCTGGCACATAACC_AD5_AD6,-0.44723007,0.56319743,-0.029510286,-0.008336567,0.14275765,-0.24034306,0.22839257,0.21605697,-0.08085803,0.08365154,0.020636518,-0.3680168,-0.27667218,0.64702,1.1959524,0.08459998
CAGGTGCAGGACCACA_AD5_AD6,0.12862654,-0.15767337,0.21401341,-0.44031996,-0.25429147,-0.011993476,-0.019346751,0.5070292,-0.06981131,0.85022557,-0.16392824,-0.19777411,0.07171722,0.3125481,0.757526,0.764946
CAGGTGCGTAGCACGA_AD5_AD6,-0.5933264,0.093956,-0.24809338,0.016053278,1.0103741,0.13895392,0.14747092,-0.21834141,-0.44543052,0.3859717,0.316898,-0.259787,0.29134953,-0.1130145,-0.49235252,-0.058911115
CAGGTGCGTCAGTGGA_AD5_AD6,0.32234952,0.056222666,0.08602427,-0.017707733,-0.87236136,0.4620397,-0.20874132,-0.15919162,-0.3414862,-0.33302042,0.6403932,0.5123013,0.11529549,-0.25122204,0.22603966,0.41214868
CAGGTGCTCCCAACGG_AD5_AD6,-0.032028206,-0.17053828,0.044879824,-0.54336965,-0.41810736,-0.26505315,0.011678976,0.6722926,-0.33509076,0.1895653,-0.07196161,0.1053005,0.30973545,0.14973208,0.32898208,0.16739707
CAGTAACGTTCCCTTG_AD5_AD6,0.089615956,0.31018952,0.9596058,0.44613543,0.36310014,-0.17223883,0.042112537,0.120625935,0.008944517,-0.55286705,0.14138003,-0.33225244,-0.24405877,0.49585873,0.5669079,-0.4810009
CAGTAACTCAATAAGG_AD5_AD6,-0.5163698,-0.13775265,0.1634002,-0.55411595,-0.36600256,0.031071547,0.2591217,0.13995421,0.030184744,0.18452585,-0.32700723,-0.026258744,0.25814512,0.30287147,-0.11125872,-0.46830606
CAGTCCTAGACAATAC_AD5_AD6,-0.04506943,0.039303362,-0.0023023863,0.533294,0.07337098,0.16923885,-0.2796352,-0.42600045,-0.6383014,-0.10249855,0.48810828,0.32587177,0.2783725,-0.7236121,-1.0895962,-0.34838128
CAGTCCTCAGTCACTA_AD5_AD6,0.21262743,0.13262646,-0.25509918,-0.027179338,-0.3575327,-0.054665964,-0.37789035,0.6611535,-0.47618955,0.0367428,0.07083704,0.23065586,-0.46182516,-0.371789,0.47706586,0.41407025
CAGTCCTGTAAAGTCA_AD5_AD6,0.088490345,0.36954787,-0.8578105,-0.23318082,0.6232369,0.086800314,-0.025992356,0.44845742,0.0023430828,0.10464437,0.04600605,0.08159163,-0.24205217,-0.52523136,0.3816813,0.56573606
CAGTCCTTCTCCAACC_AD5_AD6,0.4007752,-0.51923543,-0.3987162,-0.43082547,-0.024614796,0.2981538,0.022583656,-0.48269787,0.7448831,-0.7946565,0.056577817,0.58611506,0.31819606,-0.195745,-0.95670426,0.46329966
CATATGGAGACGCACA_AD5_AD6,-0.00073114986,-0.5099195,-0.0931591,-0.21250533,0.4272775,-0.21153295,0.078452565,0.105049595,0.17916656,0.2049643,-0.43043074,-0.12653741,0.052444853,-0.24772121,-0.91699785,-0.1769401
CATATGGAGGGCACTA_AD5_AD6,-0.023366092,-0.105184875,-0.39660877,0.32820606,-0.1973315,0.08991526,0.2145606,-0.38210043,0.5155589,-0.38539723,0.23477702,0.09178962,-0.25957635,0.39040226,0.54844797,0.7942298
CATATGGCATCAGTAC_AD5_AD6,-0.118326716,-0.15825367,0.43530616,-0.5020309,-0.08693336,0.2469776,-0.27118132,0.54121727,-0.34096885,0.4346597,-0.27072895,-0.10265511,0.003788927,-0.1768809,-0.17859566,-0.17995465
CATATGGGTGTCCTCT_AD5_AD6,0.24936609,-0.13534132,0.11532294,-0.23066683,-0.11224578,-0.014469165,0.07694723,-0.68482167,0.344156,0.27628568,0.29738984,0.057625864,0.4694333,0.40261075,-0.23836046,0.37325218
CATATTCCACATGACT_AD5_AD6,0.044076912,0.19699898,-0.5195624,0.2474729,0.2660959,-0.50467396,0.053150255,0.37716484,-0.12576948,0.058539413,0.012802666,-0.20566337,-0.35790625,-0.31414223,0.5082728,0.2139924
CATATTCTCGCACTCT_AD5_AD6,0.11496499,0.068095446,0.4148406,0.118066,0.19285724,0.35821104,-0.16403455,0.30086002,-0.11711367,-0.14051896,0.20000532,0.11788176,0.24785316,-0.266783,-0.08284025,-0.12618522
CATCAAGAGCCACCTG_AD5_AD6,0.60498136,-0.1659718,-0.4320366,-0.2368396,0.20751695,0.02489926,-0.1495508,0.60937726,0.104346395,-0.4955215,0.08906587,0.42134967,0.082430914,-0.8628732,-0.277675,0.5040757
CATCAAGAGCCGGTAA_AD5_AD6,-0.076776415,0.2290662,0.5194981,0.20334363,0.8812873,-0.13893719,0.11990229,0.015689448,1.1834918,-1.1051313,-0.47304285,-0.3719504,-0.22462334,0.31205964,0.06387352,-0.8920485
CATCAAGGTCCGACGT_AD5_AD6,0.3060807,0.20652409,0.22518468,0.31726846,0.77945805,-0.5129545,-0.029102061,-0.1652737,-0.09801065,-1.0549146,0.21730396,-0.098643966,-0.37048987,-0.143297,-0.53936315,-0.42887112
CATCAAGGTCTTCTCG_AD5_AD6,0.10257988,0.13059016,-0.93494797,-0.564712,0.2568425,-0.4248074,0.08729488,0.4056196,0.38812444,-0.5412745,-0.25472775,0.11910366,-0.5237968,-0.16736552,0.32370326,0.6950191
CATCAAGGTTCCGTCT_AD5_AD6,0.07876822,0.026629537,-1.0597974,1.3552444,0.8300714,0.07437888,0.006080622,-0.7950972,1.323818,-0.18788919,-0.46679395,-0.105497055,-0.62343496,-0.6420371,-0.5492943,0.033005737
CATCAGACATCTGGTA_AD5_AD6,0.39806566,-0.1322031,-0.047172416,0.3588777,0.9825458,-0.33677608,-0.100158654,0.4016285,0.2943302,-0.077600695,0.0049041663,-0.12457102,0.22645472,-0.49694467,-0.3127988,0.04780172
CATCAGAGTCTTCTCG_AD5_AD6,0.10972189,-0.079483755,-0.97285795,0.29568517,-0.45658866,-0.11184797,-0.26210573,0.011290372,0.301449,1.1430929,-0.4317471,0.002786951,-0.37612808,-0.281859,0.33158633,0.84085816
CATCCACCATACAGCT_AD5_AD6,-0.027769364,0.16520728,0.52190745,-0.046816945,0.25819117,0.22586045,-0.1890561,0.43180606,0.0031153134,-0.54767907,0.05686205,-0.037770096,-0.16471519,-0.16221184,0.1587993,-0.23530677
CATCCACGTCTGCAAT_AD5_AD6,0.48902866,0.34111023,0.6132692,-0.6500548,0.6027036,-0.23366393,0.26115644,-0.054127555,0.6618862,-0.33357576,0.0077019897,-0.40247768,-0.18580844,0.96842325,0.9339485,0.21609595
CATCCACGTCTTCTCG_AD5_AD6,0.029280407,0.6064268,-0.1117139,-0.46002936,0.8029373,-0.05602208,0.029060517,0.07861488,-0.41573927,-0.5431655,0.54490066,0.02398667,-0.1500257,-0.09670508,0.19832918,0.13846742
CATCCACTCCTAGAAC_AD5_AD6,0.2708177,-0.4028508,0.53908896,-0.8216114,-0.49046132,0.20964386,-0.11367034,0.43763256,0.069760785,-0.19150425,-0.49564067,0.16010675,0.0101501085,0.12339552,-0.25336477,-0.16124757
CATCGAAAGAGATGAG_AD5_AD6,0.16519919,0.278218,0.34344402,0.23473062,0.6672993,-0.22747663,0.2516008,-0.44524452,0.6046673,-0.24493276,0.023353346,-0.42092964,-0.3303507,0.6666553,0.44383723,-0.0097611
CATCGAAAGATATGCA_AD5_AD6,0.58285916,-0.029501738,-0.05615667,-0.70604986,-0.0013991976,0.004540431,-0.013975848,0.06659475,0.5702295,-1.1932075,0.14921722,0.44631153,0.042898264,0.052504003,-0.026500182,0.4543871
CATCGAAGTTTAGGAA_AD5_AD6,0.24042626,-0.44898984,-0.26564625,-0.32066724,0.14587685,0.62002313,-0.35754102,0.61151165,-0.24431223,0.13598065,-0.1811043,0.35073563,0.22022295,-0.9798851,-0.82851905,0.3855237
CATGACAAGACAGAGA_AD5_AD6,0.032954033,0.40329835,-0.23346826,-0.5710622,0.42443672,-0.18728098,0.01840224,0.32341048,-0.29770654,0.4771587,0.42778048,-0.10827051,0.16651027,0.3287917,0.8619609,0.9260776
CATGACAAGTACCGGA_AD5_AD6,-0.4990974,0.06179861,-0.11401314,0.37165275,-0.4504824,0.011224245,0.28923422,-0.40720993,0.25874856,0.008953113,-0.24927106,-0.17604256,-0.4555493,0.3898164,0.39277506,-0.16500151
CATGACAAGTCAAGGC_AD5_AD6,0.14628546,-0.37310737,-0.69336355,0.108854845,0.44546837,0.1431661,-0.17172532,-0.54423565,0.1913469,0.10213836,0.12825407,0.25371844,0.072681196,-0.63063127,-1.2050593,0.4781705
CATGACACAGGGAGAG_AD5_AD6,0.19184415,0.22986472,0.034542177,0.8013133,0.50797474,0.008391438,-0.19436589,0.2409585,0.14900838,0.23172359,-0.19528034,-0.1645145,0.077832915,-0.7151173,-0.17735025,-0.6308089
CATGACAGTCTCACCT_AD5_AD6,-0.038715377,0.2686108,-0.2937835,-0.3315135,0.42360616,0.058749836,-0.16883503,0.08531305,-0.63398725,0.3736323,0.2532179,0.069828875,0.02574901,-0.5081301,-0.40142012,0.13206714
CATGACATCTTACCTA_AD5_AD6,0.19343698,0.21282876,0.07015112,0.17877586,0.41373459,-0.5632183,-0.04361297,-0.73922455,0.047902144,0.06346131,0.4100115,-0.06508577,0.29967314,0.24871616,-0.37595463,-0.14877959
CATGCCTCAGCTGGCT_AD5_AD6,0.012117705,0.49438578,-0.15661123,0.3377314,0.5957334,-0.21142486,-0.13206501,-0.28217992,-0.3174119,-0.32219023,0.5071299,-0.1068435,-0.42015222,0.10288804,0.27327847,0.33315468
CATGCCTGTGTGTGCC_AD5_AD6,0.14366364,0.07817474,0.31169015,-0.5973888,-0.13265839,0.05042033,-0.19276829,0.70751816,-0.3985563,-0.5270423,0.32776812,0.32079217,0.1758794,-0.13978638,0.17537257,0.20905061
CATGCCTTCATCGGAT_AD5_AD6,0.4543631,-0.8842286,-0.5110941,-0.27807936,-0.9517073,-0.20129791,-0.051130172,-0.2540176,0.4016052,-0.17881283,-0.24952802,0.5786362,0.22604702,-0.31646073,-1.0225779,0.63002753
CATGGCGAGAATAGGG_AD5_AD6,-0.23726808,0.069747776,-0.5930658,-0.24090649,0.787858,-0.22825903,0.20601685,-0.67756367,0.9876001,0.5076343,-0.41155177,-0.46833614,-0.30939153,0.3903384,-0.1449351,0.16636938
CATTCGCGTCGCTTCT_AD5_AD6,0.3220278,0.6737735,1.2998772,0.340082,0.93244416,-0.9750028,0.1059247,-0.4610255,-0.67774135,-0.06682849,0.44294512,-0.7358689,0.073826276,0.6849628,0.033988684,-1.3760097
CCAATCCGTGGGTATG_AD5_AD6,-0.27889058,0.35068637,-0.015816439,0.07800913,0.7130494,0.14027525,0.08691953,-0.026094027,0.46121767,0.51826155,-0.067980014,-0.3601847,-0.1281782,0.31187356,0.54575527,0.17194556
CCACGGAAGCACCGTC_AD5_AD6,0.7593914,0.034717575,-0.017275084,-0.48885855,-0.35866138,-0.37250865,-0.14525688,0.5346004,-0.27984565,0.43968242,0.43943933,0.24743846,0.6176895,0.22969472,0.87773997,1.0148875
CCACGGACAATAGCAA_AD5_AD6,0.17398223,0.29162294,-0.5764153,0.30045134,-0.64446855,-0.29424927,-0.33105436,0.24833734,-0.24296042,0.298799,0.08034899,0.22215372,-0.36639982,-0.3393278,0.56920904,0.30025348
CCACGGACACTTGGAT_AD5_AD6,-0.49051142,0.24301219,-0.017076194,0.81093377,-0.09113037,0.45883107,-0.024852317,-0.09713697,-0.34368587,-0.69457656,0.17236091,-0.1281504,-0.82788765,-0.1663408,0.39322844,-0.1786081
CCACGGAGTCCCTACT_AD5_AD6,-0.3703646,0.56703544,-0.22033508,0.31961814,0.6224325,0.056319833,0.16611893,-0.34417555,-0.17066146,-0.31707522,0.29640654,-0.23518437,-0.48275718,0.021956837,0.3024731,-0.37778637
CCACGGATCGCCTGAG_AD5_AD6,0.18790965,-0.23585838,-0.16181706,-0.12061849,-0.5288897,0.054126237,0.012327603,-0.41535625,-0.27230084,0.43738818,0.27396286,0.25837246,0.3693096,-0.044369105,-0.3114136,0.17752695
CCACTACCACAGACTT_AD5_AD6,-0.7287092,-0.18714389,-0.38668236,0.21917696,-0.24139403,-0.009857425,0.04647763,-0.27252662,-0.0449441,0.76441556,-0.37197697,-0.11114457,0.030699365,-0.09037309,-0.5559776,-0.33990812
CCACTACGTGCACCAC_AD5_AD6,-0.6697818,-0.3587366,-0.11687589,0.5489219,-0.0829605,0.46991676,0.19260019,0.14491104,0.70947254,0.5227555,-0.7513783,-0.4265712,-0.35434332,0.06374687,0.31802896,-0.09485021
CCACTACGTGTGAAAT_AD5_AD6,-0.4602051,-0.06945032,-0.18991998,0.7113274,0.47503567,-0.033629615,0.014205841,-0.6501012,0.64932585,-0.008584811,-0.41437423,-0.25596032,-0.18200858,-0.08579847,-0.76666015,-0.62206405
CCACTACGTTTCGCTC_AD5_AD6,1.1459059,-0.50350785,0.5682204,-0.45515198,0.58303934,-0.26043138,-0.099458314,0.26110974,0.9282019,-0.7194275,-0.09167254,0.18767364,0.5016588,0.109432995,-0.47617546,0.49789453
CCATGTCAGTGCGTGA_AD5_AD6,0.32367566,0.09250493,0.9317349,-0.57339793,0.32355484,-0.64571977,0.27475557,-0.5888109,0.43170908,0.64738786,0.09101905,-0.5079197,0.39097857,1.5942866,0.55942154,0.285653
CCATGTCGTGATAAGT_AD5_AD6,0.20055234,-0.37047648,-0.36676627,-0.10419555,0.029358694,0.049006883,-0.3161931,1.2199663,-0.16719146,-0.014575043,-0.6152981,0.07904638,-0.34337196,-1.029641,-0.2157827,0.10118539
CCATGTCTCTGAGTGT_AD5_AD6,-0.49274692,-0.06822146,-0.5323336,-0.8363201,0.47945124,-0.054054815,0.36766973,0.081470005,0.044145986,-0.47370926,-0.054961167,0.015674423,-0.08549905,0.3180223,-0.11309409,0.19054441
CCATTCGAGAACAACT_AD5_AD6,0.3552371,-0.18150257,0.17118876,0.49040392,-0.27504295,-0.31185138,-0.18237199,0.04683929,0.16053279,-0.13371733,-0.035871405,0.008642066,0.0046393685,-0.17290553,0.050370913,0.049266953
CCATTCGTCTTCCTTC_AD5_AD6,0.097510405,-0.29348144,0.37162596,0.26843047,0.52362686,0.2347766,-0.26158172,0.08409684,0.16304627,0.03349878,-0.12202524,-0.064080894,0.2289245,-0.5628222,-0.9235792,-0.35645744
CCCAATCCAGGGATTG_AD5_AD6,-0.18574394,0.15119241,0.08205654,-0.29235986,0.80118173,-0.18158369,0.42115,-0.18124901,0.48965108,-0.81089264,-0.37416166,-0.38619113,-0.7227355,0.46583813,0.059013963,-0.32924092
CCCAGTTTCCACTCCA_AD5_AD6,-0.6071248,0.09468217,-1.4509841,0.07333526,-0.5645321,0.34647557,0.16733882,-0.9935961,-0.04523347,0.89525735,0.20239756,0.18010747,-0.2552687,0.12777235,0.18828773,0.975052
CCCATACAGCAATCTC_AD5_AD6,0.19501688,-0.011217827,0.6803674,-1.0240893,-0.9523071,0.26066718,-0.117133945,0.59396875,-0.7318831,0.52125967,0.07918606,0.12929527,0.44095615,0.3030824,0.69407123,0.05189722
CCCATACAGGATGTAT_AD5_AD6,0.5421627,-0.15184453,-0.09212156,-0.28235662,-0.34049952,0.38440627,-0.14386822,-0.064994864,-0.037142176,0.6481675,0.048571244,0.29403207,0.4377492,-0.3926416,-0.23779275,0.17729999
CCCATACAGTAACCCT_AD5_AD6,-0.03588349,-0.5826545,-0.09910577,0.63338643,-0.32867807,0.13992001,-0.0010453553,-0.75522316,0.7290571,0.1601843,-0.18588166,0.08874768,0.2427345,0.022627102,-0.73346096,0.13004458
CCCATACGTATAGTAG_AD5_AD6,-0.078140125,0.28326064,-0.83847183,-0.07804642,0.62735355,0.018007025,0.007749305,0.00899565,-0.0069295038,-0.49633533,0.14732437,0.20790623,-0.21527891,-0.5210686,-0.24436887,0.10541951
CCCATACTCACCCGAG_AD5_AD6,0.32189074,-0.22864376,0.110805914,-0.005599711,0.009221975,0.10652192,-0.19372319,0.650197,-0.15446915,0.32908654,-0.31502366,0.054500304,0.2029981,-0.73835546,-0.3301855,-0.42926672
CCCTCCTAGCCCAATT_AD5_AD6,-0.22208832,0.017422965,0.3083902,-1.0795187,0.18964851,-0.11670453,0.16715822,0.36395276,-0.36630684,-0.43288195,0.005679,-0.06483283,-0.097342804,0.34238252,-0.05572673,-0.2758257
CCCTCCTAGCGTGAGT_AD5_AD6,-0.17220739,0.10434128,0.40479478,-0.64425015,-0.60616225,-0.09275274,0.3716954,-0.17305972,0.09404641,-0.08174624,-0.036751457,-0.19281061,-0.07467066,1.182864,1.0002158,0.061970796
CCCTCCTCAGATCCAT_AD5_AD6,0.42823365,-0.06430545,0.2692707,0.23647258,-0.43651682,-0.529303,0.0714991,-0.29090598,0.74375564,-0.5608635,-0.083695754,0.011793142,-0.25923496,0.6872651,0.46795174,0.3212598
CCCTCCTGTGGTACAG_AD5_AD6,0.2896341,0.24414314,0.6842463,1.0785953,-1.0180492,0.14742151,-0.5248332,-0.50204295,-0.4408477,0.38397628,0.5508343,0.22186363,0.11982758,-0.077761486,0.22514421,-0.2411584
CCCTCCTTCACCCTCA_AD5_AD6,0.20551579,0.25079715,-0.037961386,0.14309797,0.9341878,-0.6580285,-0.15784335,-0.63212955,0.27207315,0.82873887,0.36409038,-0.28924936,0.5148514,0.20299542,-0.40813926,0.25278166
CCGGGATGTCAATACC_AD5_AD6,-0.3682704,0.44269273,-0.46604803,0.44190088,1.2676563,0.1962781,0.23959965,-0.9856147,-0.6305795,-0.14175831,1.013399,-0.085363366,0.24465548,-0.1781003,-0.6189699,-0.16867745
CCGGGATGTTGCCTCT_AD5_AD6,0.4626283,-0.25215062,0.23448506,0.19611272,-0.84659195,0.06968414,-0.000599149,0.1849503,-0.00995014,0.61478364,-0.21389955,0.096852355,-0.021790309,0.22413552,0.6344334,0.45726246
CCGGTAGCAAGCTGGA_AD5_AD6,-0.18239036,0.09170173,-0.80807894,0.27933484,0.12662552,-0.23676233,0.05449767,-0.10780738,0.022943627,0.15974225,-0.13325015,-0.09614798,-0.40570945,-0.22154821,0.117519215,0.30438918
CCGGTAGGTTGGTTTG_AD5_AD6,-0.38766629,0.11261485,-0.4069121,0.31849784,-0.29166,-0.3177859,0.29389742,0.025743488,0.08037096,-0.13942516,-0.115532145,-0.104844086,-0.21569662,0.23200691,0.60587865,-0.11297592
CCGTACTAGCAGCCTC_AD5_AD6,0.22330612,0.13545536,0.92115384,0.2577708,-0.30859452,0.1975666,0.00013580933,-0.69555396,-0.16593882,-0.6287419,0.2538205,-0.0018011678,-0.053054594,0.23416667,-0.3911004,-0.94144815
CCGTACTCATCGGACC_AD5_AD6,0.45309612,-0.36245513,-0.9418021,0.083643705,-0.52681303,-0.20375854,-0.6206723,0.9913824,0.14597405,0.31474438,-0.7761512,0.17860556,-0.8289121,-0.9613879,0.22134373,0.7506059
CCGTACTGTTATCCGA_AD5_AD6,-0.05576264,-0.6688452,-0.44624302,0.4222185,-0.8073294,-0.4009152,-0.12660262,-0.56887746,0.3391041,-0.35493055,-0.27255398,0.07773493,-0.831909,0.11380729,-0.4656664,0.67080444
CCGTACTTCACCACCT_AD5_AD6,0.32333058,-0.20433502,-0.26666433,-0.42819202,-0.45995396,-0.19329995,-0.14832355,-0.47401342,0.043776825,0.73806375,0.25460377,0.30967498,0.7190001,0.03402443,-0.49645928,0.5863336
CCGTGGACACATGGGA_AD5_AD6,-0.13946395,-0.4073123,0.079882376,-0.2333237,0.58893687,-0.020963201,0.39776948,-0.4377207,0.6055457,-0.87627757,-0.248345,-0.18666586,-0.39911106,0.3997164,-0.6307723,-0.03937426
CCGTTCAAGCCGCCTA_AD5_AD6,-0.35181773,-0.3513556,0.22754577,0.56069684,-0.08438845,0.03133413,0.13919042,-0.15758124,0.68621993,-0.261177,-0.71751714,-0.34103724,-0.42128345,0.21514699,-0.20529997,-0.52178854
CCTACACAGATCACGG_AD5_AD6,-0.38700408,-0.25733745,-0.48006493,0.047329955,-0.30157176,0.61903703,-0.069760054,-0.28292936,0.2944977,-0.39399958,-0.011265682,0.5095562,0.15891379,-0.4151894,-0.7421881,-0.03634726
CCTACACGTGACTACT_AD5_AD6,0.54445463,0.13869412,0.33987367,0.5996506,-0.002853611,-0.1382245,-0.3374371,-0.26192537,-0.62580884,-0.6517846,1.0458332,0.49461314,0.6759978,-0.48983452,-0.5088567,-0.084408864
CCTACACTCACGATGT_AD5_AD6,-0.1474403,0.39011413,0.40892076,0.32490692,0.0465393,0.6599518,-0.3110363,0.13012354,-1.1303705,0.05925146,0.37424088,0.050179068,0.12052144,-0.84502333,-0.4430428,-1.1147189
CCTACCACATTTGCCC_AD5_AD6,0.4990975,0.20653394,0.4503391,-0.7489772,0.26455015,0.075472645,-0.062016826,0.5295122,-0.20703287,0.0023243404,0.084835336,0.026504898,0.16927952,-0.056572046,0.2808701,0.071056366
CCTACCAGTCCTGCTT_AD5_AD6,0.20904435,-0.3403858,-1.2315524,-0.45816922,-0.22451933,-0.047006764,-0.20268351,0.5083982,-0.2839747,-0.7567425,0.20388117,0.7902937,-0.07055711,-1.0138104,-0.6067156,0.9081382
CCTACCAGTCGCGTGT_AD5_AD6,-0.065066144,0.2338943,0.021274108,-0.017567884,0.68016344,0.28026694,-0.2531967,0.13268277,-0.761026,-0.39993492,0.69697326,0.24439469,0.47626567,-0.6521128,-0.6381146,-0.21056062
CCTACCAGTCGCTTCT_AD5_AD6,0.35732758,-0.2860701,-0.056294132,0.14350912,-0.80797833,0.23513207,-0.31584087,0.57608855,-0.07850027,0.15686254,-0.30753556,0.22232316,-0.15625425,-0.38716403,0.3583966,0.32162923
CCTACCATCAGTACGT_AD5_AD6,0.3702823,-0.24594238,0.6317247,-0.29681557,0.4879093,0.52476734,-0.19285075,0.45275903,-0.07396453,-0.5981927,0.1434554,0.34041104,0.6129052,-0.6062409,-0.9429596,-0.40563795
CCTACCATCAGTTTGG_AD5_AD6,-0.393785,0.11338703,-0.6545753,-0.0473047,0.32807675,-0.053869992,0.1310232,-0.69822747,0.29358646,0.2721772,0.11481167,0.027740048,0.31830645,0.019030234,-0.48550555,0.01166186
CCTAGCTCAGCCAATT_AD5_AD6,-0.4492075,0.44061947,-0.32977182,-0.2155237,0.35915375,-0.15525536,0.26694864,-0.5914092,-0.5300291,0.7902938,0.36734906,-0.24435256,0.31521338,0.2617963,-0.01035923,-0.21999483
CCTATTAAGAAAGTGG_AD5_AD6,-0.04265226,-0.40464807,0.1259052,-0.68318874,0.13844936,-0.034809552,0.18093778,0.48951435,0.5628282,1.1354369,-0.65952283,-0.4396444,0.24535441,0.47856233,0.4564232,0.520412
CCTATTAAGTCCAGGA_AD5_AD6,0.45443556,-0.02816284,0.70887405,-0.17361683,-0.4868858,-0.25071874,-0.2576998,-0.18923837,-0.18079586,0.36736622,0.3292441,0.10196808,0.5464318,0.19603649,-0.14947332,-0.13036954
CCTATTACACGGTGTC_AD5_AD6,0.4250636,-0.41095513,0.7530503,0.18342711,-0.4557553,-0.16081668,-0.07368966,-0.12793489,0.54361767,-0.7243734,-0.28569227,0.10168302,0.03415367,0.08551685,-0.51482,-0.45368755
CCTCAGTAGGCAATTA_AD5_AD6,-0.31636313,0.0642946,-0.30623192,0.1465432,0.307848,-0.079108015,0.39651826,-0.58782303,0.640927,-0.18541417,-0.056782793,-0.043870427,0.14230955,0.59759885,0.02682099,-0.027024303
CCTCTGAGTCACTGGC_AD5_AD6,0.1974077,-0.57434607,-0.49419463,0.0680229,-1.1971798,0.53508985,-0.40149134,-0.038418368,0.031011324,0.42763454,-0.17855519,0.6242914,0.16072056,-0.7935327,-0.68986267,0.34719384
CCTCTGAGTCACTTCC_AD5_AD6,0.07435353,0.068705164,0.90216595,-0.0058593727,0.18003288,0.600669,-0.47468036,0.25684047,-0.89538217,0.7090324,0.2857424,0.09177908,0.79902256,-0.7306893,-0.93590415,-0.9382551
CCTTACGAGCTCCCAG_AD5_AD6,0.7619997,-0.12812692,1.1952875,-0.35026616,-0.3660476,0.41550115,-0.4355987,0.22115286,-0.35085583,-0.25248536,0.38314015,0.40491992,0.8192482,-0.34630257,-0.57666945,-0.3726143
CCTTACGGTATGGTTC_AD5_AD6,0.025934948,0.1516766,-0.26211557,-0.44152045,1.2721437,-0.14792052,0.39944655,-0.55355877,0.70763636,0.12661062,0.051890984,-0.38510662,0.17879558,0.49330896,-0.080000274,0.07932483
CCTTACGGTGATGTGG_AD5_AD6,-0.23366849,-0.012091065,0.57843024,0.28232482,-0.33749485,0.38956806,-0.10962466,0.7153577,-0.24516857,0.34743914,-0.394475,-0.22981536,-0.17912686,-0.13130207,0.4652963,-0.3582698
CCTTCCCCAATCCGAT_AD5_AD6,0.5447317,-0.36104253,0.9452861,-0.5878193,-0.3525752,0.16409333,-0.07740488,0.5391771,0.37075007,0.2874492,-0.33062726,-0.10768699,0.4684096,0.33369166,0.32642144,0.11129129
CCTTCCCTCACAATGC_AD5_AD6,-0.15499507,0.38289812,0.12946239,0.5332141,-0.4886866,0.18852565,-0.04026309,-0.4215489,-0.6295698,0.20725264,0.3306821,-0.0050801826,-0.27723512,-0.04802255,0.22898069,-0.51163006
CCTTCCCTCGTGACAT_AD5_AD6,0.04620207,-0.33914968,-0.08673856,-0.75031734,0.24975407,-0.17205827,-0.052174967,0.16566207,0.041460183,-0.34595042,0.0021729905,0.11265382,0.121943764,-0.031103954,-0.6014133,0.34174925
CCTTCGAAGCCCGAAA_AD5_AD6,0.114167064,-0.0135761555,0.4908409,0.2752975,-0.43435332,0.032473776,0.03198995,-0.4745787,-0.18220687,0.59518456,0.034971207,-0.092960745,0.4275161,0.1311702,-0.2554255,-0.750152
CCTTCGAAGGAGCGTT_AD5_AD6,0.4282073,0.04525461,-0.11530545,-0.7592029,0.6279858,-0.23567829,0.08439911,-0.037609223,-0.25447157,0.105192885,0.44330105,0.14983137,0.60586905,-0.09089798,-0.3713263,0.37113625
CCTTCGACATTCCTCG_AD5_AD6,0.013955669,0.041491482,0.47807443,0.82616574,-0.32429397,0.21212529,-0.009377045,-1.1819192,0.08747458,-0.31510806,0.17121442,0.04867324,-0.026722293,0.11443338,-0.81969386,-0.8391425
CGAACATCATCGATTG_AD5_AD6,-0.090074375,0.5048334,0.7502898,0.18076871,-0.4640799,-0.07203735,0.006024744,-0.22273436,-0.32243502,-0.99615616,0.57483035,0.2465754,0.11675513,0.55504465,0.4037494,-0.47828093
CGAACATGTCATATGC_AD5_AD6,-0.27397487,0.30341166,-0.14000404,0.38822946,-0.24179931,0.25093234,0.082607806,-0.16827346,-0.6073512,-0.0034807597,0.05659265,0.0057128184,-0.24419108,-0.2861488,0.03989052,-0.7295126
CGAACATGTCCGCTGA_AD5_AD6,-0.54013485,0.1260828,-0.06528465,0.21483818,-0.27402702,0.4801792,-0.039859667,0.044345703,-0.87085104,-0.17710745,-0.0069993422,0.08065044,-0.21330482,-0.52726626,-0.4357848,-0.94422823
CGAACATTCCAGAAGG_AD5_AD6,0.53536123,-0.28758478,0.24667595,-0.9966608,0.3485157,0.15718235,-0.04507056,0.8889794,-0.13688853,-0.4688611,0.06972299,0.35832548,0.51442593,-0.31248042,-0.33759537,0.25798145
CGAATGTAGCTAGGCA_AD5_AD6,0.35682368,-0.14292075,-0.5649743,-0.018236263,0.19762222,-0.28908172,-0.059107877,-0.34719142,0.34110188,-0.90409124,0.29947624,0.374032,-0.15672499,-0.023491142,-0.30375892,0.6341537
CGAATGTCACGGCCAT_AD5_AD6,0.55018884,-0.014342031,0.017461412,-0.016716825,1.2079979,-0.34304118,0.06582242,0.5326287,0.3596165,-0.35928112,-0.115216136,-0.23228167,0.024241332,-0.24059737,-0.05773542,0.075207
CGAATGTGTAAAGGAG_AD5_AD6,0.36403,0.2873946,0.81381965,-0.34406695,-0.5030303,0.09637725,0.06422364,0.114336096,-0.57832336,-0.5063793,0.51051545,0.08052896,0.29406565,0.4223188,0.7000128,-0.2518761
CGAATGTTCCTCAATT_AD5_AD6,-0.8117179,-0.16355851,-0.551268,0.8101978,0.48661515,0.3565325,-0.02157887,-0.22992732,0.056324698,-0.7074692,0.06191932,0.16471201,-0.08703989,-0.6001551,-0.8894691,-0.058816046
CGAATGTTCGAGAACG_AD5_AD6,-0.2460356,-0.18915257,0.4490204,0.5231089,-0.4910136,0.44358042,-0.28696012,-0.22596307,-0.43847165,-0.029528636,0.06454658,0.19437021,0.035257194,-0.3109154,-0.746585,-0.43598625
CGACCTTAGAACAATC_AD5_AD6,0.6706859,-0.36945075,0.51118505,-0.44926956,0.3160625,-0.064914584,-0.19002175,0.6233901,0.32924175,-0.4261436,-0.046434928,0.19559087,0.5651525,-0.2737276,-0.44681567,0.14472808
CGACCTTTCAATCTCT_AD5_AD6,0.3477721,-0.42905524,0.2829188,-0.8137213,-0.6179093,0.44720888,-0.056003217,0.27700686,0.13232715,-0.543092,-0.06776052,0.48428607,0.32017097,-0.09222067,-0.26051277,0.13482651
CGACCTTTCAGCTGGC_AD5_AD6,0.20552604,-0.65269786,-0.6914764,0.053894363,0.1181173,0.33606097,-0.13479698,0.6530082,0.70291173,0.34589687,-0.87915546,0.07574584,-0.27668533,-0.9374674,-0.47047856,0.3099501
CGACTTCCACAGAGGT_AD5_AD6,-0.44262224,0.042889263,-0.05731169,0.15983596,0.07722801,0.35058823,0.022943143,0.42908382,-0.42691046,0.24322218,-0.2909089,-0.284486,-0.3371999,-0.31529096,0.15008318,-0.4357397
CGACTTCGTACAAGTA_AD5_AD6,-0.1116597,-0.5738362,-0.68063605,0.0013407789,-0.857454,-0.12067556,-0.16080104,0.4538639,0.38456473,0.24169846,-0.6639306,0.21535257,-0.18449277,-0.40899852,-0.13021085,0.4607505
CGAGAAGCAATAAGCA_AD5_AD6,0.33466646,0.024641633,0.23746449,0.17158462,-0.17614657,0.068531245,-0.06383638,0.28347534,0.10730207,-0.32426426,-0.024540434,-0.036652166,-0.057134256,-0.17536387,0.47103643,-0.06452617
CGAGCACGTTACGCGC_AD5_AD6,0.37831724,-0.6961993,-0.68411434,0.079893626,-0.6499018,0.2702628,-0.16999462,-0.17347845,0.6244663,-0.47011918,-0.34013927,0.5976478,-0.16996555,-0.5670774,-0.7587191,0.5053072
CGAGCACTCGGAAATA_AD5_AD6,0.5543982,-0.2744868,0.05540247,-1.0486673,0.16452907,0.034993947,0.06376255,0.23550487,0.041869584,0.60485226,0.0069341194,0.119702004,0.527372,0.10577222,-0.098628014,0.65796053
CGAGCCAAGGTGCAAC_AD5_AD6,0.04292911,0.013206629,0.07954537,0.5565843,-0.09636168,0.1396382,-0.23322086,0.7008585,-0.36409116,0.33807382,-0.54325515,-0.235525,-0.55216044,-0.7318493,0.19296803,-0.40758395
CGATCGGAGATCCGAG_AD5_AD6,-0.30960414,-0.15284714,-0.5999335,0.6806087,-0.23478383,-0.43673754,-0.18681185,-0.06861044,-0.17087492,0.3544593,0.14660318,0.118644424,0.07784098,-0.33826137,-0.25839797,0.18286441
CGATCGGTCTGTCCGT_AD5_AD6,-0.019646212,-0.47394753,-0.033335894,-0.43130022,-0.42445296,0.12680344,-0.18544683,-0.07482362,0.15990318,0.5326008,-0.33769366,0.2701048,0.44637904,-0.13441034,-0.85895526,0.11038907
CGATGGCCAAACAACA_AD5_AD6,0.43309262,-0.039306562,-0.51607436,0.23434085,-1.1548237,-0.012203028,-0.01993806,-0.34940398,0.4674228,1.0148027,-0.26451477,0.080476694,-0.14775112,0.22645068,0.8960076,0.73905414
CGATGTACATCCCACT_AD5_AD6,-0.18486907,-0.32698414,0.30487704,0.4183608,0.18729939,0.27373365,0.046089273,-0.89612895,0.6028434,0.27371347,-0.31349847,-0.2183203,-0.01581957,0.12795533,-0.96192515,-0.37596247
CGATGTAGTCAGAAGC_AD5_AD6,-0.050520726,-0.19694042,0.56381243,0.77233154,0.25068533,-0.024467142,-0.3706018,-0.8124664,0.3644655,0.36672583,0.13539727,-0.012726576,0.58946025,-0.13690385,-1.2494097,-0.50650185
CGCGGTACATGCAACT_AD5_AD6,0.21511987,0.062887445,0.26979578,-0.08134426,1.4038701,-0.61989677,0.17448717,0.12903248,0.6499383,-0.21799953,-0.053123735,-0.4595666,0.22832093,0.2939361,-0.083499886,-0.1845208
CGCGGTAGTGAGTATA_AD5_AD6,-0.46682128,-0.15800026,-0.086646706,-0.04444581,1.1674414,0.24582706,-0.017253606,0.12541957,0.04889418,0.0750218,-0.11403371,-0.1318095,0.36356547,-0.27529874,-0.93814445,-0.331834
CGCGGTATCCAGTATG_AD5_AD6,0.15509054,0.5806391,-0.23525842,0.037827026,0.24015453,-0.62867105,0.091251075,0.7708274,-0.1962332,-0.36662525,0.20746052,-0.13966724,-0.29737264,0.08973412,1.3335615,0.12230179
CGCGTTTAGTCGTACT_AD5_AD6,-0.09299995,-0.3945673,-0.55049527,0.1810468,-0.78852785,-0.008264967,-0.15616414,0.0033846325,-0.03190227,0.36687848,-0.2264829,0.28953317,0.09977998,-0.45105928,-0.41044718,0.21186313
CGCGTTTCAGCTGCAC_AD5_AD6,-0.03857782,-0.42853618,-0.4764468,0.013979883,-0.23790911,-0.29320857,0.3383114,-0.42938858,0.5338697,0.9546482,-0.51465535,-0.36639518,-0.122724764,0.3536152,0.07218045,0.36003754
CGCGTTTTCCCTTGTG_AD5_AD6,0.17408174,-0.25926206,-0.09916488,0.030382136,-0.40340084,0.14605515,-0.21331096,0.88013756,0.26214045,-0.62293935,-0.6691682,0.19319409,-0.50375664,-0.49968508,0.124292515,-0.06658191
CGCGTTTTCCTATGTT_AD5_AD6,0.07912782,-0.17814435,0.092417136,0.037449777,0.16437858,0.15794922,-0.17654045,-0.5212317,-0.36943865,0.22328418,0.63785225,0.38664892,0.87492263,-0.12445005,-0.92500776,0.081611946
CGCTGGATCCGCATAA_AD5_AD6,-0.1310563,0.107377216,-0.080219425,-1.0457095,-0.60134095,0.34483546,-0.100876026,0.62808067,-0.38604844,-0.2188897,-0.020624248,0.25187874,-0.2870332,0.19481263,0.6612583,0.54705685
CGCTGGATCTCATTCA_AD5_AD6,0.47475252,-0.16316654,1.0978976,0.0066742743,-0.29629987,-0.15264936,-0.12984405,0.021321528,0.5734303,-0.11286683,-0.4862594,-0.312981,-0.35575402,0.5651916,0.3126929,-0.09485428
CGCTTCACACCCTATC_AD5_AD6,-0.5889616,-0.2965612,0.4585276,0.13127044,-0.6105136,0.28518873,0.07813233,-0.52647454,-0.19883367,0.10260144,-0.03853461,-0.04873725,-0.006515882,0.15734267,-0.6721827,-0.66336685
CGGACACAGTGAACGC_AD5_AD6,-0.29083878,-0.29647484,0.46282548,-0.2057969,-0.36286604,0.5624305,-0.09929835,0.5146938,-0.4615729,-0.9423435,-0.18027727,0.17517279,-0.40452713,-0.22514148,-0.29367772,-0.44525373
CGGACACTCACATACG_AD5_AD6,0.77008474,-0.6130339,0.46316618,0.12407187,-0.14237724,0.22224945,0.04962766,0.062475495,0.50890297,1.4056408,-0.5884039,-0.24184163,0.52807516,-0.023895388,-0.0023056502,-0.03616943
CGGACGTCAGTATCTG_AD5_AD6,0.02181156,-0.15398252,-0.7549451,0.22563687,0.26063326,0.14916207,-0.14937481,0.64738834,-0.22808567,0.38741547,-0.50976866,-0.06817454,-0.5908562,-0.83426213,-0.079631194,0.17983253
CGGACGTGTACCCAAT_AD5_AD6,0.11805675,-0.17500831,0.27435383,-0.2981079,0.081287354,0.21041542,-0.28285792,0.31845528,-0.37247118,-0.7844282,0.44863704,0.41832194,0.34002477,-0.51906073,-0.67430955,-0.027492823
CGGACGTTCGATCCCT_AD5_AD6,-0.059794914,0.28836316,-0.4155584,0.013725164,-0.19778652,0.23070541,0.10151898,0.6220856,-0.11834446,-0.15438282,-0.22047889,-0.06460852,-0.6498793,-0.0075557427,1.2040956,0.31047446
CGGACTGCAAGAGTCG_AD5_AD6,0.8083419,0.05981187,1.1089603,0.15056726,0.90987986,-0.6862341,-0.08923759,-0.21988073,0.5624414,-0.9356441,0.121288374,-0.2018541,0.06653954,0.2431905,-0.60571516,-0.6706367
CGGACTGGTCTCGTTC_AD5_AD6,-0.57144415,-0.20721963,-0.18427159,0.1420248,-0.07530128,0.20338246,0.19623798,-0.38697425,0.42802,-0.23888741,-0.13221289,-0.060680322,-0.14916687,0.2163077,-0.16748247,-0.00726134
CGGACTGGTGAAAGAG_AD5_AD6,-0.5299749,0.10363057,-0.38167548,0.5878122,-0.7818796,-0.09474574,-0.01718067,0.32235262,-0.37065104,0.47750592,-0.10011814,-0.045994855,-0.4120617,0.06096589,0.8201082,0.18851519
CGGAGCTCATGATCCA_AD5_AD6,0.6628651,-0.07968469,0.27558458,-0.033313464,-0.027415968,-0.5202646,-0.070871636,0.25639516,0.75971496,0.27269745,-0.24588774,-0.22989574,-0.10033722,0.5074444,0.8165344,0.63586086
CGGAGCTGTCATCCCT_AD5_AD6,-0.016791577,0.41350055,0.009152969,0.16192856,-0.3381233,-0.012379355,0.08264944,0.61288863,-0.42509574,-0.4068815,0.17887583,0.06299087,-0.20436193,-0.10875712,0.9861438,-0.061765023
CGGAGCTTCCGAGCCA_AD5_AD6,0.4043529,0.64460826,0.51498026,-0.734223,1.1600988,-0.15162182,0.2005882,0.1257745,-0.1990827,-0.5111875,0.5526952,-0.2209227,0.1921857,0.49897552,0.570038,0.021902034
CGGAGTCCAGTATAAG_AD5_AD6,-0.08838758,-0.04814291,0.16435944,0.854927,-0.2844584,-0.046317324,-0.04526542,-0.303538,-0.37471536,-0.06666929,0.25437835,0.08230314,0.25001875,-0.16847382,-0.3026962,-0.40499085
CGGAGTCCATATACGC_AD5_AD6,-0.54588705,0.523932,0.43504992,-0.18195353,0.441376,-0.18818812,0.16180862,0.5185819,-1.0759767,0.5839047,0.3860832,-0.40559688,0.26364735,0.29978913,0.68987477,-0.32695615
CGGAGTCGTAGCGTCC_AD5_AD6,-0.54667866,0.07400292,-0.66491055,0.021645455,0.07681986,-0.19449906,0.5850294,-0.47052985,0.7123784,-0.1529854,-0.19838847,-0.15137878,-0.07979534,0.77394253,0.5602509,0.21287107
CGGAGTCTCTATCGCC_AD5_AD6,0.13478208,0.29400867,-0.34928545,-0.21351483,-0.20724049,0.08553618,-0.06685943,0.7426825,-0.4413189,-0.28050697,-0.1700627,0.16093385,-0.5447633,-0.36786655,0.6473502,-0.052549217
CGGCTAGAGACTTGAA_AD5_AD6,0.10945847,0.18105459,-1.0691888,0.1478163,0.7617045,-0.31815818,0.097432375,0.80203336,0.3007014,-0.4022289,-0.39283028,-0.12880887,-0.6738672,-0.49568138,0.6457443,0.5220434
CGGCTAGAGATCTGAA_AD5_AD6,-0.33377132,-0.3205324,0.2969653,0.15964438,-0.10396559,-0.141791,0.23650761,-0.027864888,0.003794286,0.6065684,-0.4464228,-0.32960212,0.27598995,0.2514115,-0.26867434,-0.53247535
CGGCTAGTCTACTTAC_AD5_AD6,0.043191824,-0.15398067,-0.025466336,-0.66153693,0.24551332,-0.4814991,-0.00650237,0.42284778,0.4232542,0.06447115,-0.5453119,0.0018493326,0.16683587,0.19432518,-0.28348038,0.09016349
CGGCTAGTCTGTGCAA_AD5_AD6,-0.5372631,-0.040452205,0.26565707,-0.0970207,-0.7514391,0.25508696,-0.17939945,0.72315437,0.1042379,0.07954075,-0.4536832,0.17916931,0.2681335,0.10284601,0.35818595,-0.18973264
CGGGTCAAGAGACGAA_AD5_AD6,-0.041902892,0.027666612,0.086169764,-0.3216625,0.091406494,0.04003866,0.11047164,0.15966375,0.46775776,0.969015,-0.40984634,-0.34777704,0.1421536,0.39707708,0.5543262,0.24783519
CGGGTCACATTAGCCA_AD5_AD6,-0.38161188,-0.07408051,0.050090004,0.74798316,0.25082803,0.35055178,-0.07473958,-0.07127454,-0.09369924,-0.31232166,0.18447037,0.13435102,0.17554303,-0.58106613,-0.7332564,-0.39510676
CGGGTCAGTTAAGACA_AD5_AD6,0.014595079,0.15834457,-0.23294935,-0.5424533,0.19288146,0.36539462,0.28944793,0.17265381,0.112365335,0.25390655,0.018167801,0.052613623,0.25908598,0.103167616,0.4400672,0.13685359
CGGGTCAGTTACGACT_AD5_AD6,-1.1259856,0.3102074,-0.944956,-0.09893541,0.42456082,0.021546494,0.23611715,0.4938562,-0.9833332,0.23650035,-0.2048729,-0.3597357,-0.7809708,-0.24959296,0.29633906,-0.19236086
CGGTTAACAACGATGG_AD5_AD6,0.50677466,0.19659771,0.96928173,-0.5514219,-0.11097578,-0.10577107,-0.06154588,0.44974738,-0.45862892,-0.33481896,0.19091178,0.058236595,0.32788318,0.13025512,0.12572393,-0.49511874
CGGTTAATCAACACGT_AD5_AD6,0.007874013,-0.831845,-0.42857313,0.85948056,-0.4321936,-0.36998108,-0.061718605,-0.13181013,1.0565158,-0.3660992,-0.73171943,0.12487365,-0.21631917,-0.2998901,-0.75760484,0.22898163
CGTAGCGAGCTCTCGG_AD5_AD6,-0.7471142,-0.24076897,-0.25566852,0.1404937,-0.45803982,0.6681637,-0.014065287,0.49510214,-0.048469495,0.23695298,-0.4375634,0.024515776,-0.26823354,-0.42233625,0.02053554,0.064424
CGTAGCGCAAGGGTCA_AD5_AD6,-0.27965248,0.14559174,-0.7264493,0.75069207,-0.098105736,-0.047803868,0.06571097,0.12040056,-0.41098297,-0.40043738,0.021176504,0.05131228,-0.6485584,-0.4268999,0.2949772,-0.08828273
CGTAGCGCAATGTTGC_AD5_AD6,-0.33900625,-0.2356635,0.031553593,0.2991254,0.039178025,0.702981,-0.2619306,1.0083188,-0.1387047,0.6909011,-0.5355595,-0.14342415,0.018389314,-1.0323397,-0.120989695,-0.232251
CGTAGCGCAGTTCATG_AD5_AD6,-0.005479456,-0.099762,0.24600883,0.11229343,-0.26325938,0.41057435,-0.27817374,0.59265256,-0.4960847,-0.07791929,-0.008453995,0.21828283,0.11085374,-0.76802236,-0.34639755,-0.31234142
CGTAGCGGTAACGTTC_AD5_AD6,0.18649113,-0.27287108,0.8675849,-0.2779969,0.16529758,-0.22243115,0.27202234,-0.35473815,0.1219341,-0.3452805,-0.095216975,-0.31036815,0.07814741,0.67920816,-0.35625145,-0.5389874
CGTAGCGTCCGTTGCT_AD5_AD6,-0.30778524,-0.248145,-0.7857072,0.051124185,-1.1004759,0.6124807,-0.065504454,0.045115463,0.22752889,0.53915954,-0.7928882,0.23980223,-0.41743705,-0.37179127,0.06349072,0.05725397
CGTAGGCGTGTGAATA_AD5_AD6,0.5555037,-0.0062159374,0.1863071,-0.09330189,-0.5877602,-0.14837284,-0.14089105,-0.041611552,0.04901765,-0.6305763,0.1833863,0.33117396,-0.022959199,0.008183464,0.05682487,0.31381166
CGTCAGGAGAGCCCAA_AD5_AD6,-0.06389493,0.30464816,-0.10620114,-0.1450551,-0.18179002,0.33441022,-0.14134364,0.6693874,-0.3275828,-0.17869572,-0.027742747,0.17880048,-0.22615114,-0.3717799,0.5143649,-0.10280597
CGTCAGGAGGATATAC_AD5_AD6,-0.0087768305,0.26627073,0.25869814,-0.33204675,0.69974124,-0.0613939,-0.011355122,-0.34333238,-0.39193618,0.4434711,0.5969364,-0.12534074,0.5069149,0.2615547,-0.2180559,0.28402963
CGTCAGGGTCCGAACC_AD5_AD6,0.073086575,-0.72959584,1.148516,-0.46452993,0.07824724,0.22086562,0.1909601,-0.2743549,0.62247074,0.2674964,-0.49155414,-0.38662735,0.25733107,0.61880267,-0.742192,-0.47887787
CGTCAGGTCACAAACC_AD5_AD6,-0.34855407,-0.18391588,-0.338629,-0.5331765,-1.2067201,0.14429219,0.11215285,-0.23971502,-0.10777952,-0.27857777,-0.100950345,0.25139254,-0.43446463,0.3364943,0.16236986,0.3165085
CGTCCATGTTACCGAT_AD5_AD6,-0.3430861,-0.27516574,-0.91586214,-0.42968482,-0.21311897,0.39549604,-0.06050428,0.23228195,-0.10193477,0.2639429,-0.16880685,0.3122125,0.07319945,-0.392911,-0.23136859,0.53236896
CGTCCATTCCATGAGT_AD5_AD6,-0.12917545,0.05369393,0.265965,-0.1764854,0.14410411,0.15019709,0.29340285,-0.899331,0.34538734,-0.01670673,0.14365064,-0.09590205,0.24938966,0.6283112,-0.25942785,-0.3435947
CGTCTACAGGCCCGTT_AD5_AD6,-0.13152194,-0.14808351,0.2833179,-1.1511604,-0.7511588,0.15406102,0.21089165,0.44125506,-0.45427036,-1.026486,0.1657573,0.26551372,-0.3924305,0.7805362,0.73724735,0.7346335
CGTCTACTCCAAGTAC_AD5_AD6,0.60771984,-0.3266866,0.22812666,-0.28505278,-0.2830713,-0.1266299,0.07730401,0.21902975,0.69011587,-0.82082105,-0.29346657,0.194558,-0.21794583,0.17508988,0.16394752,0.24804156
CGTCTACTCGTAGGAG_AD5_AD6,-0.13968833,0.14577903,-0.2319808,-0.6820324,0.59333146,-0.21050647,0.2661575,-0.38687313,-0.056594443,-0.076483846,0.25924,-0.18792878,-0.08243935,0.57228166,0.038483087,0.34516808
CGTGAGCAGCCGCCTA_AD5_AD6,0.22618704,0.0067362078,0.87418664,-0.6341943,0.13084973,-0.1882426,-0.22577323,0.27303812,-0.6068292,0.6916794,0.2587047,-0.20438753,0.72894,0.04772722,-0.26394093,-0.34971508
CGTGAGCCACCTCGTT_AD5_AD6,-0.037543938,0.10375074,0.051734358,-0.1726214,-0.21216458,-0.39777952,0.42870647,0.37089065,0.67760783,0.30884176,-0.7848957,-0.4234948,-0.36914217,0.63766,1.1091481,-0.21525171
CGTGTCTGTCCGTTAA_AD5_AD6,0.08562986,0.49905184,0.88117504,0.28922573,0.5708658,0.5182651,-0.017296523,0.121295445,-0.27782863,-0.09701231,0.27755055,-0.31935287,0.04915456,-0.024058562,0.41256964,-0.5874152
CGTGTCTGTCTCTTAT_AD5_AD6,-0.31380066,0.21431828,0.2008702,-0.49637514,-0.030042388,-0.25959182,0.19819409,0.15720358,-0.744177,0.13434157,0.40040493,0.04095956,0.48625842,0.4285781,0.16865867,-0.27343905
CGTGTCTTCAGCAACT_AD5_AD6,0.5989974,-0.6016308,-0.9082299,0.068966225,0.67347395,-0.43585384,-0.27068412,-0.5449677,0.65426064,0.0037013588,0.35596117,0.48496452,0.7971223,-0.7264553,-1.5733159,0.7642866
CGTTAGAAGAATAGGG_AD5_AD6,0.016287433,0.27999476,-0.19000766,0.5594876,1.0033941,-0.374168,0.29295528,-0.6861808,0.20450068,0.8961572,0.0021218313,-0.6580108,-0.06288815,0.24690248,-0.040507004,-0.3108997
CGTTAGAAGAGTCGGT_AD5_AD6,0.26655713,0.107604854,1.1544825,0.3450008,0.057964254,-0.13278708,-0.03161032,-0.037364304,0.29849398,-1.2788421,0.06897925,-0.24208297,-0.5254787,0.49434525,0.3397795,-0.3189992
CGTTCTGAGGGCTTCC_AD5_AD6,-0.60497427,-0.11404178,0.2436,-0.5445332,0.17795485,-0.3023515,0.50170696,-0.21236552,0.20121367,-0.8364521,-0.37093535,-0.35042453,-0.6944273,0.94133055,0.0523777,-0.3566389
